<?xml version="1.0" encoding="ISO-8859-1"?>
<smile version="1.0" id="Unnamed" numsamples="1000" discsamples="10000">
	<nodes>
		<cpt id="KC78">
			<state id="Learned" />
			<state id="Unlearned" />
			<probabilities>0.99597 0.004029999999999978</probabilities>
		</cpt>
		<cpt id="KC47">
			<state id="Learned" />
			<state id="Unlearned" />
			<probabilities>1 0</probabilities>
		</cpt>
		<cpt id="KC3">
			<state id="Learned" />
			<state id="Unlearned" />
			<probabilities>1 0</probabilities>
		</cpt>
		<cpt id="KC70">
			<state id="Learned" />
			<state id="Unlearned" />
			<probabilities>0.84842 0.15158</probabilities>
		</cpt>
		<cpt id="KC51">
			<state id="Learned" />
			<state id="Unlearned" />
			<probabilities>0.99917 0.0008299999999999974</probabilities>
		</cpt>
		<cpt id="KC40">
			<state id="Learned" />
			<state id="Unlearned" />
			<probabilities>0.93215 0.06784999999999997</probabilities>
		</cpt>
		<cpt id="KC58">
			<state id="Learned" />
			<state id="Unlearned" />
			<probabilities>1 0</probabilities>
		</cpt>
		<cpt id="KC36">
			<state id="Learned" />
			<state id="Unlearned" />
			<probabilities>0.98309 0.01690999999999998</probabilities>
		</cpt>
		<cpt id="KC112">
			<state id="Learned" />
			<state id="Unlearned" />
			<probabilities>0.9506599999999999 0.04934000000000005</probabilities>
		</cpt>
		<cpt id="KC99">
			<state id="Learned" />
			<state id="Unlearned" />
			<probabilities>0.9833 0.01670000000000005</probabilities>
		</cpt>
		<cpt id="KC86">
			<state id="Learned" />
			<state id="Unlearned" />
			<probabilities>0.9718599999999999 0.02814000000000005</probabilities>
		</cpt>
		<cpt id="KC85">
			<state id="Learned" />
			<state id="Unlearned" />
			<probabilities>0.97811 0.02188999999999997</probabilities>
		</cpt>
		<cpt id="KC84">
			<state id="Learned" />
			<state id="Unlearned" />
			<probabilities>0.75444 0.24556</probabilities>
		</cpt>
		<cpt id="KC102">
			<state id="Learned" />
			<state id="Unlearned" />
			<probabilities>0.98451 0.01549</probabilities>
		</cpt>
		<cpt id="KC28">
			<state id="Learned" />
			<state id="Unlearned" />
			<probabilities>0.93008 0.06991999999999998</probabilities>
		</cpt>
		<cpt id="KC77">
			<state id="Learned" />
			<state id="Unlearned" />
			<probabilities>0.9543199999999999 0.04568000000000005</probabilities>
		</cpt>
		<cpt id="KC64">
			<state id="Learned" />
			<state id="Unlearned" />
			<probabilities>0.68308 0.31692</probabilities>
		</cpt>
		<cpt id="KC62">
			<state id="Learned" />
			<state id="Unlearned" />
			<probabilities>0.88725 0.11275</probabilities>
		</cpt>
		<cpt id="KC44">
			<state id="Learned" />
			<state id="Unlearned" />
			<probabilities>0.969 0.03100000000000003</probabilities>
		</cpt>
		<cpt id="KC22">
			<state id="Learned" />
			<state id="Unlearned" />
			<probabilities>0.9543199999999999 0.04568000000000005</probabilities>
		</cpt>
		<cpt id="KC103">
			<state id="Learned" />
			<state id="Unlearned" />
			<probabilities>0.97765 0.02234999999999998</probabilities>
		</cpt>
		<cpt id="KC26">
			<state id="Learned" />
			<state id="Unlearned" />
			<probabilities>0.8222699999999999 0.1777300000000001</probabilities>
		</cpt>
		<cpt id="KC126">
			<state id="Learned" />
			<state id="Unlearned" />
			<probabilities>0.96926 0.03073999999999999</probabilities>
		</cpt>
		<cpt id="KC20">
			<state id="Learned" />
			<state id="Unlearned" />
			<probabilities>0.97686 0.02314000000000005</probabilities>
		</cpt>
		<cpt id="KC97">
			<state id="Learned" />
			<state id="Unlearned" />
			<probabilities>0.963 0.03700000000000003</probabilities>
		</cpt>
		<cpt id="KC69">
			<state id="Learned" />
			<state id="Unlearned" />
			<probabilities>0.96221 0.03778999999999999</probabilities>
		</cpt>
		<cpt id="KC59">
			<state id="Learned" />
			<state id="Unlearned" />
			<probabilities>0.99664 0.00336000000000003</probabilities>
		</cpt>
		<cpt id="KC34">
			<state id="Learned" />
			<state id="Unlearned" />
			<probabilities>0.8605699999999999 0.1394300000000001</probabilities>
		</cpt>
		<cpt id="KC52">
			<state id="Learned" />
			<state id="Unlearned" />
			<probabilities>0.99937 0.0006300000000000194</probabilities>
		</cpt>
		<cpt id="KC37">
			<state id="Learned" />
			<state id="Unlearned" />
			<probabilities>0.9552 0.04479999999999995</probabilities>
		</cpt>
		<cpt id="KC4">
			<state id="Learned" />
			<state id="Unlearned" />
			<probabilities>0.99913 0.0008700000000000374</probabilities>
		</cpt>
		<cpt id="KC94">
			<state id="Learned" />
			<state id="Unlearned" />
			<probabilities>0.9605900000000001 0.03940999999999995</probabilities>
		</cpt>
		<cpt id="KC23">
			<state id="Learned" />
			<state id="Unlearned" />
			<probabilities>0.95268 0.04732000000000003</probabilities>
		</cpt>
		<cpt id="KC13">
			<state id="Learned" />
			<state id="Unlearned" />
			<probabilities>0.9605900000000001 0.03940999999999995</probabilities>
		</cpt>
		<cpt id="KC18">
			<state id="Learned" />
			<state id="Unlearned" />
			<probabilities>0.92708 0.07291999999999998</probabilities>
		</cpt>
		<cpt id="KC81">
			<state id="Learned" />
			<state id="Unlearned" />
			<probabilities>0.99373 0.006269999999999998</probabilities>
		</cpt>
		<cpt id="KC139">
			<state id="Learned" />
			<state id="Unlearned" />
			<probabilities>0.96004 0.03996</probabilities>
		</cpt>
		<cpt id="KC71">
			<state id="Learned" />
			<state id="Unlearned" />
			<probabilities>0.93747 0.06252999999999997</probabilities>
		</cpt>
		<cpt id="KC12">
			<state id="Learned" />
			<state id="Unlearned" />
			<probabilities>0.67785 0.32215</probabilities>
		</cpt>
		<cpt id="KC100">
			<state id="Learned" />
			<state id="Unlearned" />
			<probabilities>0.94499 0.05501</probabilities>
		</cpt>
		<cpt id="KC60">
			<state id="Learned" />
			<state id="Unlearned" />
			<probabilities>0.95253 0.04747000000000001</probabilities>
		</cpt>
		<cpt id="KC2">
			<state id="Learned" />
			<state id="Unlearned" />
			<probabilities>0.90198 0.09802</probabilities>
		</cpt>
		<cpt id="KC72">
			<state id="Learned" />
			<state id="Unlearned" />
			<probabilities>0.9142400000000001 0.08575999999999995</probabilities>
		</cpt>
		<cpt id="KC56">
			<state id="Learned" />
			<state id="Unlearned" />
			<probabilities>0.92317 0.07682999999999995</probabilities>
		</cpt>
		<cpt id="KC115">
			<state id="Learned" />
			<state id="Unlearned" />
			<probabilities>0.88822 0.11178</probabilities>
		</cpt>
		<cpt id="KC114">
			<state id="Learned" />
			<state id="Unlearned" />
			<probabilities>0.88822 0.11178</probabilities>
		</cpt>
		<cpt id="KC33">
			<state id="Learned" />
			<state id="Unlearned" />
			<probabilities>0.88986 0.11014</probabilities>
		</cpt>
		<cpt id="KC61">
			<state id="Learned" />
			<state id="Unlearned" />
			<probabilities>0.91475 0.08525000000000005</probabilities>
		</cpt>
		<cpt id="KC10">
			<state id="Learned" />
			<state id="Unlearned" />
			<probabilities>0.97214 0.02786</probabilities>
		</cpt>
		<cpt id="KC7">
			<state id="Learned" />
			<state id="Unlearned" />
			<probabilities>0.87674 0.12326</probabilities>
		</cpt>
		<cpt id="KC6">
			<state id="Learned" />
			<state id="Unlearned" />
			<probabilities>0.87674 0.12326</probabilities>
		</cpt>
		<cpt id="KC5">
			<state id="Learned" />
			<state id="Unlearned" />
			<probabilities>0.88948 0.11052</probabilities>
		</cpt>
		<cpt id="KC109">
			<state id="Learned" />
			<state id="Unlearned" />
			<probabilities>0.91596 0.08404</probabilities>
		</cpt>
		<cpt id="KC68">
			<state id="Learned" />
			<state id="Unlearned" />
			<probabilities>0.85292 0.14708</probabilities>
		</cpt>
		<cpt id="KC53">
			<state id="Learned" />
			<state id="Unlearned" />
			<probabilities>0.9049 0.09509999999999996</probabilities>
		</cpt>
		<cpt id="KC50">
			<state id="Learned" />
			<state id="Unlearned" />
			<probabilities>0.9049 0.09509999999999996</probabilities>
		</cpt>
		<cpt id="KC48">
			<state id="Learned" />
			<state id="Unlearned" />
			<probabilities>0.9049 0.09509999999999996</probabilities>
		</cpt>
		<cpt id="KC41">
			<state id="Learned" />
			<state id="Unlearned" />
			<probabilities>0.9049 0.09509999999999996</probabilities>
		</cpt>
		<cpt id="KC1">
			<state id="Learned" />
			<state id="Unlearned" />
			<probabilities>0.9049 0.09509999999999996</probabilities>
		</cpt>
		<cpt id="KC106">
			<state id="Learned" />
			<state id="Unlearned" />
			<probabilities>0.91456 0.08543999999999996</probabilities>
		</cpt>
		<cpt id="KC15">
			<state id="Learned" />
			<state id="Unlearned" />
			<probabilities>0.90639 0.09360999999999997</probabilities>
		</cpt>
		<cpt id="KC57">
			<state id="Learned" />
			<state id="Unlearned" />
			<probabilities>0.79173 0.20827</probabilities>
		</cpt>
		<cpt id="KC9">
			<state id="Learned" />
			<state id="Unlearned" />
			<probabilities>0.7936299999999999 0.2063700000000001</probabilities>
		</cpt>
		<cpt id="KC25">
			<state id="Learned" />
			<state id="Unlearned" />
			<probabilities>0.82535 0.17465</probabilities>
		</cpt>
		<cpt id="KC116">
			<state id="Learned" />
			<state id="Unlearned" />
			<probabilities>0.9182 0.08179999999999998</probabilities>
		</cpt>
		<cpt id="KC96">
			<state id="Learned" />
			<state id="Unlearned" />
			<probabilities>0.86699 0.13301</probabilities>
		</cpt>
		<cpt id="KC119">
			<state id="Learned" />
			<state id="Unlearned" />
			<probabilities>0.83203 0.16797</probabilities>
		</cpt>
		<cpt id="KC118">
			<state id="Learned" />
			<state id="Unlearned" />
			<probabilities>0.87381 0.12619</probabilities>
		</cpt>
		<cpt id="KC117">
			<state id="Learned" />
			<state id="Unlearned" />
			<probabilities>0.87381 0.12619</probabilities>
		</cpt>
		<cpt id="KC38">
			<state id="Learned" />
			<state id="Unlearned" />
			<probabilities>0.94192 0.05808000000000002</probabilities>
		</cpt>
		<cpt id="KC98">
			<state id="Learned" />
			<state id="Unlearned" />
			<probabilities>0.82415 0.17585</probabilities>
		</cpt>
		<cpt id="KC107">
			<state id="Learned" />
			<state id="Unlearned" />
			<probabilities>0.7848000000000001 0.2151999999999999</probabilities>
		</cpt>
		<cpt id="KC27">
			<state id="Learned" />
			<state id="Unlearned" />
			<probabilities>0.7667 0.2333</probabilities>
		</cpt>
		<cpt id="KC111">
			<state id="Learned" />
			<state id="Unlearned" />
			<probabilities>0.92134 0.07865999999999995</probabilities>
		</cpt>
		<cpt id="KC105">
			<state id="Learned" />
			<state id="Unlearned" />
			<probabilities>0.83178 0.16822</probabilities>
		</cpt>
		<cpt id="KC93">
			<state id="Learned" />
			<state id="Unlearned" />
			<probabilities>0.8081 0.1919</probabilities>
		</cpt>
		<cpt id="KC92">
			<state id="Learned" />
			<state id="Unlearned" />
			<probabilities>0.78609 0.21391</probabilities>
		</cpt>
		<cpt id="KC91">
			<state id="Learned" />
			<state id="Unlearned" />
			<probabilities>0.8197 0.1803</probabilities>
		</cpt>
		<cpt id="KC90">
			<state id="Learned" />
			<state id="Unlearned" />
			<probabilities>0.8197 0.1803</probabilities>
		</cpt>
		<cpt id="KC66">
			<state id="Learned" />
			<state id="Unlearned" />
			<probabilities>0.82726 0.17274</probabilities>
		</cpt>
		<cpt id="KC63">
			<state id="Learned" />
			<state id="Unlearned" />
			<probabilities>0.82726 0.17274</probabilities>
		</cpt>
		<cpt id="KC43">
			<state id="Learned" />
			<state id="Unlearned" />
			<probabilities>0.8197 0.1803</probabilities>
		</cpt>
		<cpt id="KC29">
			<state id="Learned" />
			<state id="Unlearned" />
			<probabilities>0.8197 0.1803</probabilities>
		</cpt>
		<cpt id="KC39">
			<state id="Learned" />
			<state id="Unlearned" />
			<probabilities>0.8647899999999999 0.1352100000000001</probabilities>
		</cpt>
		<cpt id="KC32">
			<state id="Learned" />
			<state id="Unlearned" />
			<probabilities>0.74012 0.25988</probabilities>
		</cpt>
		<cpt id="KC89">
			<state id="Learned" />
			<state id="Unlearned" />
			<probabilities>0.76761 0.23239</probabilities>
		</cpt>
		<cpt id="KC17">
			<state id="Learned" />
			<state id="Unlearned" />
			<probabilities>0.71204 0.28796</probabilities>
		</cpt>
		<cpt id="KC104">
			<state id="Learned" />
			<state id="Unlearned" />
			<probabilities>0.7163 0.2837</probabilities>
		</cpt>
		<cpt id="KC87">
			<state id="Learned" />
			<state id="Unlearned" />
			<probabilities>0.74492 0.25508</probabilities>
		</cpt>
		<cpt id="KC120">
			<state id="Learned" />
			<state id="Unlearned" />
			<probabilities>0.8608 0.1392</probabilities>
		</cpt>
		<cpt id="KC55">
			<state id="Learned" />
			<state id="Unlearned" />
			<probabilities>0.71591 0.28409</probabilities>
		</cpt>
		<cpt id="KC65">
			<state id="Learned" />
			<state id="Unlearned" />
			<probabilities>0.65757 0.34243</probabilities>
		</cpt>
		<cpt id="KC49">
			<state id="Learned" />
			<state id="Unlearned" />
			<probabilities>0.58594 0.41406</probabilities>
		</cpt>
		<cpt id="KC101">
			<state id="Learned" />
			<state id="Unlearned" />
			<probabilities>0.58025 0.41975</probabilities>
		</cpt>
		<cpt id="KC24">
			<state id="Learned" />
			<state id="Unlearned" />
			<probabilities>0.5053 0.4947</probabilities>
		</cpt>
		<cpt id="KC108">
			<state id="Learned" />
			<state id="Unlearned" />
			<probabilities>0.5615599999999999 0.4384400000000001</probabilities>
		</cpt>
		<cpt id="KC113">
			<state id="Learned" />
			<state id="Unlearned" />
			<probabilities>0.35272 0.6472800000000001</probabilities>
		</cpt>
		<cpt id="KC54">
			<state id="Learned" />
			<state id="Unlearned" />
			<probabilities>0.43882 0.56118</probabilities>
		</cpt>
		<cpt id="KC110">
			<state id="Learned" />
			<state id="Unlearned" />
			<probabilities>0.3723 0.6276999999999999</probabilities>
		</cpt>
		<cpt id="KC67">
			<state id="Learned" />
			<state id="Unlearned" />
			<probabilities>0.44004 0.55996</probabilities>
		</cpt>
		<cpt id="jVariable1_rev">
			<state id="Correct" />
			<state id="Wrong" />
			<parents>KC78 KC47 KC3</parents>
			<probabilities>0.9826589999999999 0.017341 2.0638e-52 1 2.0638e-52 1 2.0638e-52 1 2.0638e-52 1 2.0638e-52 1 2.0638e-52 1 2.0638e-52 1</probabilities>
		</cpt>
		<cpt id="jbooleanOperationsLessEqual">
			<state id="Correct" />
			<state id="Wrong" />
			<parents>KC70 KC51 KC40</parents>
			<probabilities>0.99999989941 1.0059e-07 0.86941 0.13059 0.86941 0.13059 0.86941 0.13059 0.86941 0.13059 0.86941 0.13059 0.86941 0.13059 0.86941 0.13059</probabilities>
		</cpt>
		<cpt id="jVariables2">
			<state id="Correct" />
			<state id="Wrong" />
			<parents>KC78 KC47 KC3 KC58</parents>
			<probabilities>0.987398 0.012602 1.0185e-18 1 1.0185e-18 1 1.0185e-18 1 1.0185e-18 1 1.0185e-18 1 1.0185e-18 1 1.0185e-18 1 1.0185e-18 1 1.0185e-18 1 1.0185e-18 1 1.0185e-18 1 1.0185e-18 1 1.0185e-18 1 1.0185e-18 1 1.0185e-18 1</probabilities>
		</cpt>
		<cpt id="jbooleanOperationsGreaterEqual">
			<state id="Correct" />
			<state id="Wrong" />
			<parents>KC70 KC40 KC36</parents>
			<probabilities>0.937649 0.062351 1 0 1 0 1 0 1 0 1 0 1 0 1 0</probabilities>
		</cpt>
		<cpt id="jVariable4_rev">
			<state id="Correct" />
			<state id="Wrong" />
			<parents>KC78 KC47 KC58 KC112</parents>
			<probabilities>0.9536789999999999 0.046321 1 0 1 0 1 0 1 0 1 0 1 0 1 0 1 0 1 0 1 0 1 0 1 0 1 0 1 0 1 0</probabilities>
		</cpt>
		<cpt id="jVariables3">
			<state id="Correct" />
			<state id="Wrong" />
			<parents>KC78 KC47 KC112</parents>
			<probabilities>0.9990404899999999 0.00095951 0.0025597 0.9974402999999999 0.0025597 0.9974402999999999 0.0025597 0.9974402999999999 0.0025597 0.9974402999999999 0.0025597 0.9974402999999999 0.0025597 0.9974402999999999 0.0025597 0.9974402999999999</probabilities>
		</cpt>
		<cpt id="jString_to_Int">
			<state id="Correct" />
			<state id="Wrong" />
			<parents>KC47 KC99 KC86 KC85 KC84</parents>
			<probabilities>0.951196 0.048804 0.9499 0.05010000000000003 0.9499 0.05010000000000003 0.9499 0.05010000000000003 0.9499 0.05010000000000003 0.9499 0.05010000000000003 0.9499 0.05010000000000003 0.9499 0.05010000000000003 0.9499 0.05010000000000003 0.9499 0.05010000000000003 0.9499 0.05010000000000003 0.9499 0.05010000000000003 0.9499 0.05010000000000003 0.9499 0.05010000000000003 0.9499 0.05010000000000003 0.9499 0.05010000000000003 0.9499 0.05010000000000003 0.9499 0.05010000000000003 0.9499 0.05010000000000003 0.9499 0.05010000000000003 0.9499 0.05010000000000003 0.9499 0.05010000000000003 0.9499 0.05010000000000003 0.9499 0.05010000000000003 0.9499 0.05010000000000003 0.9499 0.05010000000000003 0.9499 0.05010000000000003 0.9499 0.05010000000000003 0.9499 0.05010000000000003 0.9499 0.05010000000000003 0.9499 0.05010000000000003 0.9499 0.05010000000000003</probabilities>
		</cpt>
		<cpt id="jMathFuc2">
			<state id="Correct" />
			<state id="Wrong" />
			<parents>KC47 KC102 KC28</parents>
			<probabilities>0.953609 0.046391 0.77635 0.22365 0.77635 0.22365 0.77635 0.22365 0.77635 0.22365 0.77635 0.22365 0.77635 0.22365 0.77635 0.22365</probabilities>
		</cpt>
		<cpt id="jClass1">
			<state id="Correct" />
			<state id="Wrong" />
			<parents>KC77 KC64 KC62 KC44 KC22</parents>
			<probabilities>0.955023 0.044977 0.9215100000000001 0.07848999999999995 0.9215100000000001 0.07848999999999995 0.9215100000000001 0.07848999999999995 0.9215100000000001 0.07848999999999995 0.9215100000000001 0.07848999999999995 0.9215100000000001 0.07848999999999995 0.9215100000000001 0.07848999999999995 0.9215100000000001 0.07848999999999995 0.9215100000000001 0.07848999999999995 0.9215100000000001 0.07848999999999995 0.9215100000000001 0.07848999999999995 0.9215100000000001 0.07848999999999995 0.9215100000000001 0.07848999999999995 0.9215100000000001 0.07848999999999995 0.9215100000000001 0.07848999999999995 0.9215100000000001 0.07848999999999995 0.9215100000000001 0.07848999999999995 0.9215100000000001 0.07848999999999995 0.9215100000000001 0.07848999999999995 0.9215100000000001 0.07848999999999995 0.9215100000000001 0.07848999999999995 0.9215100000000001 0.07848999999999995 0.9215100000000001 0.07848999999999995 0.9215100000000001 0.07848999999999995 0.9215100000000001 0.07848999999999995 0.9215100000000001 0.07848999999999995 0.9215100000000001 0.07848999999999995 0.9215100000000001 0.07848999999999995 0.9215100000000001 0.07848999999999995 0.9215100000000001 0.07848999999999995 0.9215100000000001 0.07848999999999995</probabilities>
		</cpt>
		<cpt id="jInt_Long">
			<state id="Correct" />
			<state id="Wrong" />
			<parents>KC47 KC28 KC103 KC26</parents>
			<probabilities>0.9445170000000001 0.055483 0.89114 0.10886 0.89114 0.10886 0.89114 0.10886 0.89114 0.10886 0.89114 0.10886 0.89114 0.10886 0.89114 0.10886 0.89114 0.10886 0.89114 0.10886 0.89114 0.10886 0.89114 0.10886 0.89114 0.10886 0.89114 0.10886 0.89114 0.10886 0.89114 0.10886</probabilities>
		</cpt>
		<cpt id="jVariables5">
			<state id="Correct" />
			<state id="Wrong" />
			<parents>KC78 KC112 KC86 KC84</parents>
			<probabilities>0.9953629000000001 0.0046371 0.76237 0.23763 0.76237 0.23763 0.76237 0.23763 0.76237 0.23763 0.76237 0.23763 0.76237 0.23763 0.76237 0.23763 0.76237 0.23763 0.76237 0.23763 0.76237 0.23763 0.76237 0.23763 0.76237 0.23763 0.76237 0.23763 0.76237 0.23763 0.76237 0.23763</probabilities>
		</cpt>
		<cpt id="jSimpleVariableTest">
			<state id="Correct" />
			<state id="Wrong" />
			<parents>KC78 KC47 KC58</parents>
			<probabilities>0.9302319999999999 0.069768 2.0355e-45 1 2.0355e-45 1 2.0355e-45 1 2.0355e-45 1 2.0355e-45 1 2.0355e-45 1 2.0355e-45 1</probabilities>
		</cpt>
		<cpt id="jBa_ques">
			<state id="Correct" />
			<state id="Wrong" />
			<parents>KC77 KC64 KC62 KC44 KC22</parents>
			<probabilities>0.945789 0.054211 0.85384 0.14616 0.85384 0.14616 0.85384 0.14616 0.85384 0.14616 0.85384 0.14616 0.85384 0.14616 0.85384 0.14616 0.85384 0.14616 0.85384 0.14616 0.85384 0.14616 0.85384 0.14616 0.85384 0.14616 0.85384 0.14616 0.85384 0.14616 0.85384 0.14616 0.85384 0.14616 0.85384 0.14616 0.85384 0.14616 0.85384 0.14616 0.85384 0.14616 0.85384 0.14616 0.85384 0.14616 0.85384 0.14616 0.85384 0.14616 0.85384 0.14616 0.85384 0.14616 0.85384 0.14616 0.85384 0.14616 0.85384 0.14616 0.85384 0.14616 0.85384 0.14616</probabilities>
		</cpt>
		<cpt id="jCompoundAssignment_mult">
			<state id="Correct" />
			<state id="Wrong" />
			<parents>KC47 KC126</parents>
			<probabilities>0.925507 0.074493 0.68907 0.31093 0.68907 0.31093 0.68907 0.31093</probabilities>
		</cpt>
		<cpt id="jConstants3">
			<state id="Correct" />
			<state id="Wrong" />
			<parents>KC47 KC3 KC28 KC20</parents>
			<probabilities>0.955842 0.044158 0.39476 0.60524 0.39476 0.60524 0.39476 0.60524 0.39476 0.60524 0.39476 0.60524 0.39476 0.60524 0.39476 0.60524 0.39476 0.60524 0.39476 0.60524 0.39476 0.60524 0.39476 0.60524 0.39476 0.60524 0.39476 0.60524 0.39476 0.60524 0.39476 0.60524</probabilities>
		</cpt>
		<cpt id="jWhile2">
			<state id="Correct" />
			<state id="Wrong" />
			<parents>KC97 KC69</parents>
			<probabilities>0.960832 0.039168 0.18826 0.81174 0.18826 0.81174 0.18826 0.81174</probabilities>
		</cpt>
		<cpt id="jNested1">
			<state id="Correct" />
			<state id="Wrong" />
			<parents>KC70 KC59 KC34</parents>
			<probabilities>0.942456 0.057544 0.72575 0.27425 0.72575 0.27425 0.72575 0.27425 0.72575 0.27425 0.72575 0.27425 0.72575 0.27425 0.72575 0.27425</probabilities>
		</cpt>
		<cpt id="jBoolean_Operators">
			<state id="Correct" />
			<state id="Wrong" />
			<parents>KC70 KC40 KC52 KC37 KC4</parents>
			<probabilities>0.982078 0.017922 0.50275 0.49725 0.50275 0.49725 0.50275 0.49725 0.50275 0.49725 0.50275 0.49725 0.50275 0.49725 0.50275 0.49725 0.50275 0.49725 0.50275 0.49725 0.50275 0.49725 0.50275 0.49725 0.50275 0.49725 0.50275 0.49725 0.50275 0.49725 0.50275 0.49725 0.50275 0.49725 0.50275 0.49725 0.50275 0.49725 0.50275 0.49725 0.50275 0.49725 0.50275 0.49725 0.50275 0.49725 0.50275 0.49725 0.50275 0.49725 0.50275 0.49725 0.50275 0.49725 0.50275 0.49725 0.50275 0.49725 0.50275 0.49725 0.50275 0.49725 0.50275 0.49725</probabilities>
		</cpt>
		<cpt id="jSwitch1">
			<state id="Correct" />
			<state id="Wrong" />
			<parents>KC94 KC23 KC13</parents>
			<probabilities>0.948749 0.051251 0.35568 0.64432 0.35568 0.64432 0.35568 0.64432 0.35568 0.64432 0.35568 0.64432 0.35568 0.64432 0.35568 0.64432</probabilities>
		</cpt>
		<cpt id="jConstants2">
			<state id="Correct" />
			<state id="Wrong" />
			<parents>KC47 KC58 KC26 KC18</parents>
			<probabilities>0.8833 0.1167 0.82243 0.17757 0.82243 0.17757 0.82243 0.17757 0.82243 0.17757 0.82243 0.17757 0.82243 0.17757 0.82243 0.17757 0.82243 0.17757 0.82243 0.17757 0.82243 0.17757 0.82243 0.17757 0.82243 0.17757 0.82243 0.17757 0.82243 0.17757 0.82243 0.17757</probabilities>
		</cpt>
		<cpt id="jString5">
			<state id="Correct" />
			<state id="Wrong" />
			<parents>KC84 KC62 KC81 KC139</parents>
			<probabilities>0.902459 0.097541 0.74851 0.25149 0.74851 0.25149 0.74851 0.25149 0.74851 0.25149 0.74851 0.25149 0.74851 0.25149 0.74851 0.25149 0.74851 0.25149 0.74851 0.25149 0.74851 0.25149 0.74851 0.25149 0.74851 0.25149 0.74851 0.25149 0.74851 0.25149 0.74851 0.25149</probabilities>
		</cpt>
		<cpt id="jPreDecrement">
			<state id="Correct" />
			<state id="Wrong" />
			<parents>KC47 KC71</parents>
			<probabilities>0.86381 0.13619 0.53968 0.46032 0.53968 0.46032 0.53968 0.46032</probabilities>
		</cpt>
		<cpt id="jBoolean_Var">
			<state id="Correct" />
			<state id="Wrong" />
			<parents>KC40 KC37 KC12</parents>
			<probabilities>0.89788 0.10212 0.7653799999999999 0.2346200000000001 0.7653799999999999 0.2346200000000001 0.7653799999999999 0.2346200000000001 0.7653799999999999 0.2346200000000001 0.7653799999999999 0.2346200000000001 0.7653799999999999 0.2346200000000001 0.7653799999999999 0.2346200000000001</probabilities>
		</cpt>
		<cpt id="jString3">
			<state id="Correct" />
			<state id="Wrong" />
			<parents>KC86 KC85 KC84 KC81</parents>
			<probabilities>0.983885 0.016115 0.42329 0.5767100000000001 0.42329 0.5767100000000001 0.42329 0.5767100000000001 0.42329 0.5767100000000001 0.42329 0.5767100000000001 0.42329 0.5767100000000001 0.42329 0.5767100000000001 0.42329 0.5767100000000001 0.42329 0.5767100000000001 0.42329 0.5767100000000001 0.42329 0.5767100000000001 0.42329 0.5767100000000001 0.42329 0.5767100000000001 0.42329 0.5767100000000001 0.42329 0.5767100000000001</probabilities>
		</cpt>
		<cpt id="jbooleanOperationsNotEqual">
			<state id="Correct" />
			<state id="Wrong" />
			<parents>KC40 KC100 KC60</parents>
			<probabilities>0.942923 0.057077 0.33132 0.6686799999999999 0.33132 0.6686799999999999 0.33132 0.6686799999999999 0.33132 0.6686799999999999 0.33132 0.6686799999999999 0.33132 0.6686799999999999 0.33132 0.6686799999999999</probabilities>
		</cpt>
		<cpt id="jClasses4">
			<state id="Correct" />
			<state id="Wrong" />
			<parents>KC77 KC64 KC62 KC44 KC22</parents>
			<probabilities>0.88431 0.11569 0.77658 0.22342 0.77658 0.22342 0.77658 0.22342 0.77658 0.22342 0.77658 0.22342 0.77658 0.22342 0.77658 0.22342 0.77658 0.22342 0.77658 0.22342 0.77658 0.22342 0.77658 0.22342 0.77658 0.22342 0.77658 0.22342 0.77658 0.22342 0.77658 0.22342 0.77658 0.22342 0.77658 0.22342 0.77658 0.22342 0.77658 0.22342 0.77658 0.22342 0.77658 0.22342 0.77658 0.22342 0.77658 0.22342 0.77658 0.22342 0.77658 0.22342 0.77658 0.22342 0.77658 0.22342 0.77658 0.22342 0.77658 0.22342 0.77658 0.22342 0.77658 0.22342</probabilities>
		</cpt>
		<cpt id="jSwitch2">
			<state id="Correct" />
			<state id="Wrong" />
			<parents>KC94 KC13</parents>
			<probabilities>0.84767 0.15233 0.41176 0.58824 0.41176 0.58824 0.41176 0.58824</probabilities>
		</cpt>
		<cpt id="jVariable1">
			<state id="Correct" />
			<state id="Wrong" />
			<parents>KC47 KC2</parents>
			<probabilities>0.8656200000000001 0.13438 0.41888 0.5811200000000001 0.41888 0.5811200000000001 0.41888 0.5811200000000001</probabilities>
		</cpt>
		<cpt id="jClasses_Getter">
			<state id="Correct" />
			<state id="Wrong" />
			<parents>KC77 KC64 KC62 KC44 KC22</parents>
			<probabilities>0.912752 0.08724800000000001 0.7307 0.2693 0.7307 0.2693 0.7307 0.2693 0.7307 0.2693 0.7307 0.2693 0.7307 0.2693 0.7307 0.2693 0.7307 0.2693 0.7307 0.2693 0.7307 0.2693 0.7307 0.2693 0.7307 0.2693 0.7307 0.2693 0.7307 0.2693 0.7307 0.2693 0.7307 0.2693 0.7307 0.2693 0.7307 0.2693 0.7307 0.2693 0.7307 0.2693 0.7307 0.2693 0.7307 0.2693 0.7307 0.2693 0.7307 0.2693 0.7307 0.2693 0.7307 0.2693 0.7307 0.2693 0.7307 0.2693 0.7307 0.2693 0.7307 0.2693 0.7307 0.2693</probabilities>
		</cpt>
		<cpt id="jSwitch3">
			<state id="Correct" />
			<state id="Wrong" />
			<parents>KC94 KC23 KC13</parents>
			<probabilities>0.85606 0.14394 0.54676 0.45324 0.54676 0.45324 0.54676 0.45324 0.54676 0.45324 0.54676 0.45324 0.54676 0.45324 0.54676 0.45324</probabilities>
		</cpt>
		<cpt id="jIncrement">
			<state id="Correct" />
			<state id="Wrong" />
			<parents>KC47 KC72</parents>
			<probabilities>0.84468 0.15532 0.50052 0.49948 0.50052 0.49948 0.50052 0.49948</probabilities>
		</cpt>
		<cpt id="jOperator1">
			<state id="Correct" />
			<state id="Wrong" />
			<parents>KC47 KC56</parents>
			<probabilities>0.8642300000000001 0.13577 0.25634 0.74366 0.25634 0.74366 0.25634 0.74366</probabilities>
		</cpt>
		<cpt id="jArrayList4">
			<state id="Correct" />
			<state id="Wrong" />
			<parents>KC70 KC40 KC64 KC62 KC115 KC114 KC33</parents>
			<probabilities>0.84903 0.15097 0.71998 0.28002 0.71998 0.28002 0.71998 0.28002 0.71998 0.28002 0.71998 0.28002 0.71998 0.28002 0.71998 0.28002 0.71998 0.28002 0.71998 0.28002 0.71998 0.28002 0.71998 0.28002 0.71998 0.28002 0.71998 0.28002 0.71998 0.28002 0.71998 0.28002 0.71998 0.28002 0.71998 0.28002 0.71998 0.28002 0.71998 0.28002 0.71998 0.28002 0.71998 0.28002 0.71998 0.28002 0.71998 0.28002 0.71998 0.28002 0.71998 0.28002 0.71998 0.28002 0.71998 0.28002 0.71998 0.28002 0.71998 0.28002 0.71998 0.28002 0.71998 0.28002 0.71998 0.28002 0.71998 0.28002 0.71998 0.28002 0.71998 0.28002 0.71998 0.28002 0.71998 0.28002 0.71998 0.28002 0.71998 0.28002 0.71998 0.28002 0.71998 0.28002 0.71998 0.28002 0.71998 0.28002 0.71998 0.28002 0.71998 0.28002 0.71998 0.28002 0.71998 0.28002 0.71998 0.28002 0.71998 0.28002 0.71998 0.28002 0.71998 0.28002 0.71998 0.28002 0.71998 0.28002 0.71998 0.28002 0.71998 0.28002 0.71998 0.28002 0.71998 0.28002 0.71998 0.28002 0.71998 0.28002 0.71998 0.28002 0.71998 0.28002 0.71998 0.28002 0.71998 0.28002 0.71998 0.28002 0.71998 0.28002 0.71998 0.28002 0.71998 0.28002 0.71998 0.28002 0.71998 0.28002 0.71998 0.28002 0.71998 0.28002 0.71998 0.28002 0.71998 0.28002 0.71998 0.28002 0.71998 0.28002 0.71998 0.28002 0.71998 0.28002 0.71998 0.28002 0.71998 0.28002 0.71998 0.28002 0.71998 0.28002 0.71998 0.28002 0.71998 0.28002 0.71998 0.28002 0.71998 0.28002 0.71998 0.28002 0.71998 0.28002 0.71998 0.28002 0.71998 0.28002 0.71998 0.28002 0.71998 0.28002 0.71998 0.28002 0.71998 0.28002 0.71998 0.28002 0.71998 0.28002 0.71998 0.28002 0.71998 0.28002 0.71998 0.28002 0.71998 0.28002 0.71998 0.28002 0.71998 0.28002 0.71998 0.28002 0.71998 0.28002 0.71998 0.28002 0.71998 0.28002 0.71998 0.28002 0.71998 0.28002 0.71998 0.28002 0.71998 0.28002 0.71998 0.28002 0.71998 0.28002 0.71998 0.28002 0.71998 0.28002 0.71998 0.28002 0.71998 0.28002 0.71998 0.28002 0.71998 0.28002 0.71998 0.28002 0.71998 0.28002 0.71998 0.28002 0.71998 0.28002 0.71998 0.28002 0.71998 0.28002 0.71998 0.28002 0.71998 0.28002 0.71998 0.28002 0.71998 0.28002</probabilities>
		</cpt>
		<cpt id="jbooleanOperationsNot">
			<state id="Correct" />
			<state id="Wrong" />
			<parents>KC70 KC40 KC52 KC37 KC4 KC61</parents>
			<probabilities>0.87498 0.12502 0.5013 0.4987 0.5013 0.4987 0.5013 0.4987 0.5013 0.4987 0.5013 0.4987 0.5013 0.4987 0.5013 0.4987 0.5013 0.4987 0.5013 0.4987 0.5013 0.4987 0.5013 0.4987 0.5013 0.4987 0.5013 0.4987 0.5013 0.4987 0.5013 0.4987 0.5013 0.4987 0.5013 0.4987 0.5013 0.4987 0.5013 0.4987 0.5013 0.4987 0.5013 0.4987 0.5013 0.4987 0.5013 0.4987 0.5013 0.4987 0.5013 0.4987 0.5013 0.4987 0.5013 0.4987 0.5013 0.4987 0.5013 0.4987 0.5013 0.4987 0.5013 0.4987 0.5013 0.4987 0.5013 0.4987 0.5013 0.4987 0.5013 0.4987 0.5013 0.4987 0.5013 0.4987 0.5013 0.4987 0.5013 0.4987 0.5013 0.4987 0.5013 0.4987 0.5013 0.4987 0.5013 0.4987 0.5013 0.4987 0.5013 0.4987 0.5013 0.4987 0.5013 0.4987 0.5013 0.4987 0.5013 0.4987 0.5013 0.4987 0.5013 0.4987 0.5013 0.4987 0.5013 0.4987 0.5013 0.4987 0.5013 0.4987 0.5013 0.4987 0.5013 0.4987 0.5013 0.4987 0.5013 0.4987 0.5013 0.4987 0.5013 0.4987 0.5013 0.4987 0.5013 0.4987</probabilities>
		</cpt>
		<cpt id="jIfelse1">
			<state id="Correct" />
			<state id="Wrong" />
			<parents>KC40 KC37 KC2 KC56</parents>
			<probabilities>0.87435 0.12565 0.47778 0.52222 0.47778 0.52222 0.47778 0.52222 0.47778 0.52222 0.47778 0.52222 0.47778 0.52222 0.47778 0.52222 0.47778 0.52222 0.47778 0.52222 0.47778 0.52222 0.47778 0.52222 0.47778 0.52222 0.47778 0.52222 0.47778 0.52222 0.47778 0.52222</probabilities>
		</cpt>
		<cpt id="jFor3">
			<state id="Correct" />
			<state id="Wrong" />
			<parents>KC70 KC34</parents>
			<probabilities>0.908679 0.091321 0.48609 0.51391 0.48609 0.51391 0.48609 0.51391</probabilities>
		</cpt>
		<cpt id="jArray4">
			<state id="Correct" />
			<state id="Wrong" />
			<parents>KC34 KC10 KC7 KC6 KC5</parents>
			<probabilities>0.85682 0.14318 0.62505 0.37495 0.62505 0.37495 0.62505 0.37495 0.62505 0.37495 0.62505 0.37495 0.62505 0.37495 0.62505 0.37495 0.62505 0.37495 0.62505 0.37495 0.62505 0.37495 0.62505 0.37495 0.62505 0.37495 0.62505 0.37495 0.62505 0.37495 0.62505 0.37495 0.62505 0.37495 0.62505 0.37495 0.62505 0.37495 0.62505 0.37495 0.62505 0.37495 0.62505 0.37495 0.62505 0.37495 0.62505 0.37495 0.62505 0.37495 0.62505 0.37495 0.62505 0.37495 0.62505 0.37495 0.62505 0.37495 0.62505 0.37495 0.62505 0.37495 0.62505 0.37495</probabilities>
		</cpt>
		<cpt id="jString2">
			<state id="Correct" />
			<state id="Wrong" />
			<parents>KC86 KC85 KC84 KC64 KC109</parents>
			<probabilities>0.908786 0.091214 0.61282 0.38718 0.61282 0.38718 0.61282 0.38718 0.61282 0.38718 0.61282 0.38718 0.61282 0.38718 0.61282 0.38718 0.61282 0.38718 0.61282 0.38718 0.61282 0.38718 0.61282 0.38718 0.61282 0.38718 0.61282 0.38718 0.61282 0.38718 0.61282 0.38718 0.61282 0.38718 0.61282 0.38718 0.61282 0.38718 0.61282 0.38718 0.61282 0.38718 0.61282 0.38718 0.61282 0.38718 0.61282 0.38718 0.61282 0.38718 0.61282 0.38718 0.61282 0.38718 0.61282 0.38718 0.61282 0.38718 0.61282 0.38718 0.61282 0.38718 0.61282 0.38718</probabilities>
		</cpt>
		<cpt id="jDouble1">
			<state id="Correct" />
			<state id="Wrong" />
			<parents>KC47 KC3 KC28 KC26</parents>
			<probabilities>0.904927 0.095073 0.31672 0.68328 0.31672 0.68328 0.31672 0.68328 0.31672 0.68328 0.31672 0.68328 0.31672 0.68328 0.31672 0.68328 0.31672 0.68328 0.31672 0.68328 0.31672 0.68328 0.31672 0.68328 0.31672 0.68328 0.31672 0.68328 0.31672 0.68328 0.31672 0.68328</probabilities>
		</cpt>
		<cpt id="jInterfaces4">
			<state id="Correct" />
			<state id="Wrong" />
			<parents>KC64 KC2 KC68 KC53 KC50 KC48 KC41 KC1</parents>
			<probabilities>0.9963954 0.0036046 0.64464 0.35536 0.64464 0.35536 0.64464 0.35536 0.64464 0.35536 0.64464 0.35536 0.64464 0.35536 0.64464 0.35536 0.64464 0.35536 0.64464 0.35536 0.64464 0.35536 0.64464 0.35536 0.64464 0.35536 0.64464 0.35536 0.64464 0.35536 0.64464 0.35536 0.64464 0.35536 0.64464 0.35536 0.64464 0.35536 0.64464 0.35536 0.64464 0.35536 0.64464 0.35536 0.64464 0.35536 0.64464 0.35536 0.64464 0.35536 0.64464 0.35536 0.64464 0.35536 0.64464 0.35536 0.64464 0.35536 0.64464 0.35536 0.64464 0.35536 0.64464 0.35536 0.64464 0.35536 0.64464 0.35536 0.64464 0.35536 0.64464 0.35536 0.64464 0.35536 0.64464 0.35536 0.64464 0.35536 0.64464 0.35536 0.64464 0.35536 0.64464 0.35536 0.64464 0.35536 0.64464 0.35536 0.64464 0.35536 0.64464 0.35536 0.64464 0.35536 0.64464 0.35536 0.64464 0.35536 0.64464 0.35536 0.64464 0.35536 0.64464 0.35536 0.64464 0.35536 0.64464 0.35536 0.64464 0.35536 0.64464 0.35536 0.64464 0.35536 0.64464 0.35536 0.64464 0.35536 0.64464 0.35536 0.64464 0.35536 0.64464 0.35536 0.64464 0.35536 0.64464 0.35536 0.64464 0.35536 0.64464 0.35536 0.64464 0.35536 0.64464 0.35536 0.64464 0.35536 0.64464 0.35536 0.64464 0.35536 0.64464 0.35536 0.64464 0.35536 0.64464 0.35536 0.64464 0.35536 0.64464 0.35536 0.64464 0.35536 0.64464 0.35536 0.64464 0.35536 0.64464 0.35536 0.64464 0.35536 0.64464 0.35536 0.64464 0.35536 0.64464 0.35536 0.64464 0.35536 0.64464 0.35536 0.64464 0.35536 0.64464 0.35536 0.64464 0.35536 0.64464 0.35536 0.64464 0.35536 0.64464 0.35536 0.64464 0.35536 0.64464 0.35536 0.64464 0.35536 0.64464 0.35536 0.64464 0.35536 0.64464 0.35536 0.64464 0.35536 0.64464 0.35536 0.64464 0.35536 0.64464 0.35536 0.64464 0.35536 0.64464 0.35536 0.64464 0.35536 0.64464 0.35536 0.64464 0.35536 0.64464 0.35536 0.64464 0.35536 0.64464 0.35536 0.64464 0.35536 0.64464 0.35536 0.64464 0.35536 0.64464 0.35536 0.64464 0.35536 0.64464 0.35536 0.64464 0.35536 0.64464 0.35536 0.64464 0.35536 0.64464 0.35536 0.64464 0.35536 0.64464 0.35536 0.64464 0.35536 0.64464 0.35536 0.64464 0.35536 0.64464 0.35536 0.64464 0.35536 0.64464 0.35536 0.64464 0.35536 0.64464 0.35536 0.64464 0.35536 0.64464 0.35536 0.64464 0.35536 0.64464 0.35536 0.64464 0.35536 0.64464 0.35536 0.64464 0.35536 0.64464 0.35536 0.64464 0.35536 0.64464 0.35536 0.64464 0.35536 0.64464 0.35536 0.64464 0.35536 0.64464 0.35536 0.64464 0.35536 0.64464 0.35536 0.64464 0.35536 0.64464 0.35536 0.64464 0.35536 0.64464 0.35536 0.64464 0.35536 0.64464 0.35536 0.64464 0.35536 0.64464 0.35536 0.64464 0.35536 0.64464 0.35536 0.64464 0.35536 0.64464 0.35536 0.64464 0.35536 0.64464 0.35536 0.64464 0.35536 0.64464 0.35536 0.64464 0.35536 0.64464 0.35536 0.64464 0.35536 0.64464 0.35536 0.64464 0.35536 0.64464 0.35536 0.64464 0.35536 0.64464 0.35536 0.64464 0.35536 0.64464 0.35536 0.64464 0.35536 0.64464 0.35536 0.64464 0.35536 0.64464 0.35536 0.64464 0.35536 0.64464 0.35536 0.64464 0.35536 0.64464 0.35536 0.64464 0.35536 0.64464 0.35536 0.64464 0.35536 0.64464 0.35536 0.64464 0.35536 0.64464 0.35536 0.64464 0.35536 0.64464 0.35536 0.64464 0.35536 0.64464 0.35536 0.64464 0.35536 0.64464 0.35536 0.64464 0.35536 0.64464 0.35536 0.64464 0.35536 0.64464 0.35536 0.64464 0.35536 0.64464 0.35536 0.64464 0.35536 0.64464 0.35536 0.64464 0.35536 0.64464 0.35536 0.64464 0.35536 0.64464 0.35536 0.64464 0.35536 0.64464 0.35536 0.64464 0.35536 0.64464 0.35536 0.64464 0.35536 0.64464 0.35536 0.64464 0.35536 0.64464 0.35536 0.64464 0.35536 0.64464 0.35536 0.64464 0.35536 0.64464 0.35536 0.64464 0.35536 0.64464 0.35536 0.64464 0.35536 0.64464 0.35536 0.64464 0.35536 0.64464 0.35536 0.64464 0.35536 0.64464 0.35536 0.64464 0.35536 0.64464 0.35536 0.64464 0.35536 0.64464 0.35536 0.64464 0.35536 0.64464 0.35536 0.64464 0.35536 0.64464 0.35536 0.64464 0.35536 0.64464 0.35536 0.64464 0.35536 0.64464 0.35536 0.64464 0.35536 0.64464 0.35536 0.64464 0.35536 0.64464 0.35536 0.64464 0.35536 0.64464 0.35536 0.64464 0.35536 0.64464 0.35536 0.64464 0.35536 0.64464 0.35536 0.64464 0.35536 0.64464 0.35536 0.64464 0.35536 0.64464 0.35536 0.64464 0.35536 0.64464 0.35536 0.64464 0.35536 0.64464 0.35536 0.64464 0.35536 0.64464 0.35536</probabilities>
		</cpt>
		<cpt id="jInterfaces5">
			<state id="Correct" />
			<state id="Wrong" />
			<parents>KC64 KC2 KC68 KC53 KC50 KC48 KC41 KC1</parents>
			<probabilities>0.83064 0.16936 0.68621 0.31379 0.68621 0.31379 0.68621 0.31379 0.68621 0.31379 0.68621 0.31379 0.68621 0.31379 0.68621 0.31379 0.68621 0.31379 0.68621 0.31379 0.68621 0.31379 0.68621 0.31379 0.68621 0.31379 0.68621 0.31379 0.68621 0.31379 0.68621 0.31379 0.68621 0.31379 0.68621 0.31379 0.68621 0.31379 0.68621 0.31379 0.68621 0.31379 0.68621 0.31379 0.68621 0.31379 0.68621 0.31379 0.68621 0.31379 0.68621 0.31379 0.68621 0.31379 0.68621 0.31379 0.68621 0.31379 0.68621 0.31379 0.68621 0.31379 0.68621 0.31379 0.68621 0.31379 0.68621 0.31379 0.68621 0.31379 0.68621 0.31379 0.68621 0.31379 0.68621 0.31379 0.68621 0.31379 0.68621 0.31379 0.68621 0.31379 0.68621 0.31379 0.68621 0.31379 0.68621 0.31379 0.68621 0.31379 0.68621 0.31379 0.68621 0.31379 0.68621 0.31379 0.68621 0.31379 0.68621 0.31379 0.68621 0.31379 0.68621 0.31379 0.68621 0.31379 0.68621 0.31379 0.68621 0.31379 0.68621 0.31379 0.68621 0.31379 0.68621 0.31379 0.68621 0.31379 0.68621 0.31379 0.68621 0.31379 0.68621 0.31379 0.68621 0.31379 0.68621 0.31379 0.68621 0.31379 0.68621 0.31379 0.68621 0.31379 0.68621 0.31379 0.68621 0.31379 0.68621 0.31379 0.68621 0.31379 0.68621 0.31379 0.68621 0.31379 0.68621 0.31379 0.68621 0.31379 0.68621 0.31379 0.68621 0.31379 0.68621 0.31379 0.68621 0.31379 0.68621 0.31379 0.68621 0.31379 0.68621 0.31379 0.68621 0.31379 0.68621 0.31379 0.68621 0.31379 0.68621 0.31379 0.68621 0.31379 0.68621 0.31379 0.68621 0.31379 0.68621 0.31379 0.68621 0.31379 0.68621 0.31379 0.68621 0.31379 0.68621 0.31379 0.68621 0.31379 0.68621 0.31379 0.68621 0.31379 0.68621 0.31379 0.68621 0.31379 0.68621 0.31379 0.68621 0.31379 0.68621 0.31379 0.68621 0.31379 0.68621 0.31379 0.68621 0.31379 0.68621 0.31379 0.68621 0.31379 0.68621 0.31379 0.68621 0.31379 0.68621 0.31379 0.68621 0.31379 0.68621 0.31379 0.68621 0.31379 0.68621 0.31379 0.68621 0.31379 0.68621 0.31379 0.68621 0.31379 0.68621 0.31379 0.68621 0.31379 0.68621 0.31379 0.68621 0.31379 0.68621 0.31379 0.68621 0.31379 0.68621 0.31379 0.68621 0.31379 0.68621 0.31379 0.68621 0.31379 0.68621 0.31379 0.68621 0.31379 0.68621 0.31379 0.68621 0.31379 0.68621 0.31379 0.68621 0.31379 0.68621 0.31379 0.68621 0.31379 0.68621 0.31379 0.68621 0.31379 0.68621 0.31379 0.68621 0.31379 0.68621 0.31379 0.68621 0.31379 0.68621 0.31379 0.68621 0.31379 0.68621 0.31379 0.68621 0.31379 0.68621 0.31379 0.68621 0.31379 0.68621 0.31379 0.68621 0.31379 0.68621 0.31379 0.68621 0.31379 0.68621 0.31379 0.68621 0.31379 0.68621 0.31379 0.68621 0.31379 0.68621 0.31379 0.68621 0.31379 0.68621 0.31379 0.68621 0.31379 0.68621 0.31379 0.68621 0.31379 0.68621 0.31379 0.68621 0.31379 0.68621 0.31379 0.68621 0.31379 0.68621 0.31379 0.68621 0.31379 0.68621 0.31379 0.68621 0.31379 0.68621 0.31379 0.68621 0.31379 0.68621 0.31379 0.68621 0.31379 0.68621 0.31379 0.68621 0.31379 0.68621 0.31379 0.68621 0.31379 0.68621 0.31379 0.68621 0.31379 0.68621 0.31379 0.68621 0.31379 0.68621 0.31379 0.68621 0.31379 0.68621 0.31379 0.68621 0.31379 0.68621 0.31379 0.68621 0.31379 0.68621 0.31379 0.68621 0.31379 0.68621 0.31379 0.68621 0.31379 0.68621 0.31379 0.68621 0.31379 0.68621 0.31379 0.68621 0.31379 0.68621 0.31379 0.68621 0.31379 0.68621 0.31379 0.68621 0.31379 0.68621 0.31379 0.68621 0.31379 0.68621 0.31379 0.68621 0.31379 0.68621 0.31379 0.68621 0.31379 0.68621 0.31379 0.68621 0.31379 0.68621 0.31379 0.68621 0.31379 0.68621 0.31379 0.68621 0.31379 0.68621 0.31379 0.68621 0.31379 0.68621 0.31379 0.68621 0.31379 0.68621 0.31379 0.68621 0.31379 0.68621 0.31379 0.68621 0.31379 0.68621 0.31379 0.68621 0.31379 0.68621 0.31379 0.68621 0.31379 0.68621 0.31379 0.68621 0.31379 0.68621 0.31379 0.68621 0.31379 0.68621 0.31379 0.68621 0.31379 0.68621 0.31379 0.68621 0.31379 0.68621 0.31379 0.68621 0.31379 0.68621 0.31379 0.68621 0.31379 0.68621 0.31379 0.68621 0.31379 0.68621 0.31379 0.68621 0.31379 0.68621 0.31379 0.68621 0.31379 0.68621 0.31379 0.68621 0.31379 0.68621 0.31379 0.68621 0.31379 0.68621 0.31379 0.68621 0.31379 0.68621 0.31379 0.68621 0.31379 0.68621 0.31379 0.68621 0.31379 0.68621 0.31379 0.68621 0.31379 0.68621 0.31379 0.68621 0.31379 0.68621 0.31379</probabilities>
		</cpt>
		<cpt id="jString4">
			<state id="Correct" />
			<state id="Wrong" />
			<parents>KC86 KC85 KC84 KC64 KC106 KC15</parents>
			<probabilities>0.950981 0.049019 0.55327 0.44673 0.55327 0.44673 0.55327 0.44673 0.55327 0.44673 0.55327 0.44673 0.55327 0.44673 0.55327 0.44673 0.55327 0.44673 0.55327 0.44673 0.55327 0.44673 0.55327 0.44673 0.55327 0.44673 0.55327 0.44673 0.55327 0.44673 0.55327 0.44673 0.55327 0.44673 0.55327 0.44673 0.55327 0.44673 0.55327 0.44673 0.55327 0.44673 0.55327 0.44673 0.55327 0.44673 0.55327 0.44673 0.55327 0.44673 0.55327 0.44673 0.55327 0.44673 0.55327 0.44673 0.55327 0.44673 0.55327 0.44673 0.55327 0.44673 0.55327 0.44673 0.55327 0.44673 0.55327 0.44673 0.55327 0.44673 0.55327 0.44673 0.55327 0.44673 0.55327 0.44673 0.55327 0.44673 0.55327 0.44673 0.55327 0.44673 0.55327 0.44673 0.55327 0.44673 0.55327 0.44673 0.55327 0.44673 0.55327 0.44673 0.55327 0.44673 0.55327 0.44673 0.55327 0.44673 0.55327 0.44673 0.55327 0.44673 0.55327 0.44673 0.55327 0.44673 0.55327 0.44673 0.55327 0.44673 0.55327 0.44673 0.55327 0.44673 0.55327 0.44673 0.55327 0.44673 0.55327 0.44673 0.55327 0.44673 0.55327 0.44673 0.55327 0.44673 0.55327 0.44673</probabilities>
		</cpt>
		<cpt id="j2D_arrays4">
			<state id="Correct" />
			<state id="Wrong" />
			<parents>KC70 KC40 KC34 KC10 KC7 KC6 KC57 KC9</parents>
			<probabilities>0.79788 0.20212 0.6352 0.3648 0.6352 0.3648 0.6352 0.3648 0.6352 0.3648 0.6352 0.3648 0.6352 0.3648 0.6352 0.3648 0.6352 0.3648 0.6352 0.3648 0.6352 0.3648 0.6352 0.3648 0.6352 0.3648 0.6352 0.3648 0.6352 0.3648 0.6352 0.3648 0.6352 0.3648 0.6352 0.3648 0.6352 0.3648 0.6352 0.3648 0.6352 0.3648 0.6352 0.3648 0.6352 0.3648 0.6352 0.3648 0.6352 0.3648 0.6352 0.3648 0.6352 0.3648 0.6352 0.3648 0.6352 0.3648 0.6352 0.3648 0.6352 0.3648 0.6352 0.3648 0.6352 0.3648 0.6352 0.3648 0.6352 0.3648 0.6352 0.3648 0.6352 0.3648 0.6352 0.3648 0.6352 0.3648 0.6352 0.3648 0.6352 0.3648 0.6352 0.3648 0.6352 0.3648 0.6352 0.3648 0.6352 0.3648 0.6352 0.3648 0.6352 0.3648 0.6352 0.3648 0.6352 0.3648 0.6352 0.3648 0.6352 0.3648 0.6352 0.3648 0.6352 0.3648 0.6352 0.3648 0.6352 0.3648 0.6352 0.3648 0.6352 0.3648 0.6352 0.3648 0.6352 0.3648 0.6352 0.3648 0.6352 0.3648 0.6352 0.3648 0.6352 0.3648 0.6352 0.3648 0.6352 0.3648 0.6352 0.3648 0.6352 0.3648 0.6352 0.3648 0.6352 0.3648 0.6352 0.3648 0.6352 0.3648 0.6352 0.3648 0.6352 0.3648 0.6352 0.3648 0.6352 0.3648 0.6352 0.3648 0.6352 0.3648 0.6352 0.3648 0.6352 0.3648 0.6352 0.3648 0.6352 0.3648 0.6352 0.3648 0.6352 0.3648 0.6352 0.3648 0.6352 0.3648 0.6352 0.3648 0.6352 0.3648 0.6352 0.3648 0.6352 0.3648 0.6352 0.3648 0.6352 0.3648 0.6352 0.3648 0.6352 0.3648 0.6352 0.3648 0.6352 0.3648 0.6352 0.3648 0.6352 0.3648 0.6352 0.3648 0.6352 0.3648 0.6352 0.3648 0.6352 0.3648 0.6352 0.3648 0.6352 0.3648 0.6352 0.3648 0.6352 0.3648 0.6352 0.3648 0.6352 0.3648 0.6352 0.3648 0.6352 0.3648 0.6352 0.3648 0.6352 0.3648 0.6352 0.3648 0.6352 0.3648 0.6352 0.3648 0.6352 0.3648 0.6352 0.3648 0.6352 0.3648 0.6352 0.3648 0.6352 0.3648 0.6352 0.3648 0.6352 0.3648 0.6352 0.3648 0.6352 0.3648 0.6352 0.3648 0.6352 0.3648 0.6352 0.3648 0.6352 0.3648 0.6352 0.3648 0.6352 0.3648 0.6352 0.3648 0.6352 0.3648 0.6352 0.3648 0.6352 0.3648 0.6352 0.3648 0.6352 0.3648 0.6352 0.3648 0.6352 0.3648 0.6352 0.3648 0.6352 0.3648 0.6352 0.3648 0.6352 0.3648 0.6352 0.3648 0.6352 0.3648 0.6352 0.3648 0.6352 0.3648 0.6352 0.3648 0.6352 0.3648 0.6352 0.3648 0.6352 0.3648 0.6352 0.3648 0.6352 0.3648 0.6352 0.3648 0.6352 0.3648 0.6352 0.3648 0.6352 0.3648 0.6352 0.3648 0.6352 0.3648 0.6352 0.3648 0.6352 0.3648 0.6352 0.3648 0.6352 0.3648 0.6352 0.3648 0.6352 0.3648 0.6352 0.3648 0.6352 0.3648 0.6352 0.3648 0.6352 0.3648 0.6352 0.3648 0.6352 0.3648 0.6352 0.3648 0.6352 0.3648 0.6352 0.3648 0.6352 0.3648 0.6352 0.3648 0.6352 0.3648 0.6352 0.3648 0.6352 0.3648 0.6352 0.3648 0.6352 0.3648 0.6352 0.3648 0.6352 0.3648 0.6352 0.3648 0.6352 0.3648 0.6352 0.3648 0.6352 0.3648 0.6352 0.3648 0.6352 0.3648 0.6352 0.3648 0.6352 0.3648 0.6352 0.3648 0.6352 0.3648 0.6352 0.3648 0.6352 0.3648 0.6352 0.3648 0.6352 0.3648 0.6352 0.3648 0.6352 0.3648 0.6352 0.3648 0.6352 0.3648 0.6352 0.3648 0.6352 0.3648 0.6352 0.3648 0.6352 0.3648 0.6352 0.3648 0.6352 0.3648 0.6352 0.3648 0.6352 0.3648 0.6352 0.3648 0.6352 0.3648 0.6352 0.3648 0.6352 0.3648 0.6352 0.3648 0.6352 0.3648 0.6352 0.3648 0.6352 0.3648 0.6352 0.3648 0.6352 0.3648 0.6352 0.3648 0.6352 0.3648 0.6352 0.3648 0.6352 0.3648 0.6352 0.3648 0.6352 0.3648 0.6352 0.3648 0.6352 0.3648 0.6352 0.3648 0.6352 0.3648 0.6352 0.3648 0.6352 0.3648 0.6352 0.3648 0.6352 0.3648 0.6352 0.3648 0.6352 0.3648 0.6352 0.3648 0.6352 0.3648 0.6352 0.3648 0.6352 0.3648 0.6352 0.3648 0.6352 0.3648 0.6352 0.3648 0.6352 0.3648 0.6352 0.3648 0.6352 0.3648 0.6352 0.3648 0.6352 0.3648 0.6352 0.3648 0.6352 0.3648 0.6352 0.3648 0.6352 0.3648 0.6352 0.3648 0.6352 0.3648 0.6352 0.3648 0.6352 0.3648 0.6352 0.3648 0.6352 0.3648 0.6352 0.3648</probabilities>
		</cpt>
		<cpt id="jDowhile1">
			<state id="Correct" />
			<state id="Wrong" />
			<parents>KC70 KC25</parents>
			<probabilities>0.7907 0.2093 0.5158700000000001 0.4841299999999999 0.5158700000000001 0.4841299999999999 0.5158700000000001 0.4841299999999999</probabilities>
		</cpt>
		<cpt id="jArray5">
			<state id="Correct" />
			<state id="Wrong" />
			<parents>KC64 KC62 KC34 KC10 KC7 KC6 KC5</parents>
			<probabilities>0.8636900000000001 0.13631 0.5936 0.4064 0.5936 0.4064 0.5936 0.4064 0.5936 0.4064 0.5936 0.4064 0.5936 0.4064 0.5936 0.4064 0.5936 0.4064 0.5936 0.4064 0.5936 0.4064 0.5936 0.4064 0.5936 0.4064 0.5936 0.4064 0.5936 0.4064 0.5936 0.4064 0.5936 0.4064 0.5936 0.4064 0.5936 0.4064 0.5936 0.4064 0.5936 0.4064 0.5936 0.4064 0.5936 0.4064 0.5936 0.4064 0.5936 0.4064 0.5936 0.4064 0.5936 0.4064 0.5936 0.4064 0.5936 0.4064 0.5936 0.4064 0.5936 0.4064 0.5936 0.4064 0.5936 0.4064 0.5936 0.4064 0.5936 0.4064 0.5936 0.4064 0.5936 0.4064 0.5936 0.4064 0.5936 0.4064 0.5936 0.4064 0.5936 0.4064 0.5936 0.4064 0.5936 0.4064 0.5936 0.4064 0.5936 0.4064 0.5936 0.4064 0.5936 0.4064 0.5936 0.4064 0.5936 0.4064 0.5936 0.4064 0.5936 0.4064 0.5936 0.4064 0.5936 0.4064 0.5936 0.4064 0.5936 0.4064 0.5936 0.4064 0.5936 0.4064 0.5936 0.4064 0.5936 0.4064 0.5936 0.4064 0.5936 0.4064 0.5936 0.4064 0.5936 0.4064 0.5936 0.4064 0.5936 0.4064 0.5936 0.4064 0.5936 0.4064 0.5936 0.4064 0.5936 0.4064 0.5936 0.4064 0.5936 0.4064 0.5936 0.4064 0.5936 0.4064 0.5936 0.4064 0.5936 0.4064 0.5936 0.4064 0.5936 0.4064 0.5936 0.4064 0.5936 0.4064 0.5936 0.4064 0.5936 0.4064 0.5936 0.4064 0.5936 0.4064 0.5936 0.4064 0.5936 0.4064 0.5936 0.4064 0.5936 0.4064 0.5936 0.4064 0.5936 0.4064 0.5936 0.4064 0.5936 0.4064 0.5936 0.4064 0.5936 0.4064 0.5936 0.4064 0.5936 0.4064 0.5936 0.4064 0.5936 0.4064 0.5936 0.4064 0.5936 0.4064 0.5936 0.4064 0.5936 0.4064 0.5936 0.4064 0.5936 0.4064 0.5936 0.4064 0.5936 0.4064 0.5936 0.4064 0.5936 0.4064 0.5936 0.4064 0.5936 0.4064 0.5936 0.4064 0.5936 0.4064 0.5936 0.4064 0.5936 0.4064 0.5936 0.4064 0.5936 0.4064 0.5936 0.4064 0.5936 0.4064 0.5936 0.4064 0.5936 0.4064 0.5936 0.4064 0.5936 0.4064 0.5936 0.4064 0.5936 0.4064 0.5936 0.4064 0.5936 0.4064 0.5936 0.4064 0.5936 0.4064 0.5936 0.4064</probabilities>
		</cpt>
		<cpt id="jDowhile3">
			<state id="Correct" />
			<state id="Wrong" />
			<parents>KC2 KC25</parents>
			<probabilities>0.91622 0.08377999999999999 0.088225 0.911775 0.088225 0.911775 0.088225 0.911775</probabilities>
		</cpt>
		<cpt id="jFor2">
			<state id="Correct" />
			<state id="Wrong" />
			<parents>KC70 KC34</parents>
			<probabilities>0.92188 0.07811999999999999 0.21395 0.78605 0.21395 0.78605 0.21395 0.78605</probabilities>
		</cpt>
		<cpt id="jWhile1">
			<state id="Correct" />
			<state id="Wrong" />
			<parents>KC70 KC97</parents>
			<probabilities>0.72803 0.27197 0.66544 0.33456 0.66544 0.33456 0.66544 0.33456</probabilities>
		</cpt>
		<cpt id="jBoolean_Operators3">
			<state id="Correct" />
			<state id="Wrong" />
			<parents>KC37 KC12</parents>
			<probabilities>0.86095 0.13905 0.30135 0.69865 0.30135 0.69865 0.30135 0.69865</probabilities>
		</cpt>
		<cpt id="jArrayList1">
			<state id="Correct" />
			<state id="Wrong" />
			<parents>KC64 KC62 KC115 KC114 KC116</parents>
			<probabilities>0.934453 0.06554699999999999 0.34807 0.65193 0.34807 0.65193 0.34807 0.65193 0.34807 0.65193 0.34807 0.65193 0.34807 0.65193 0.34807 0.65193 0.34807 0.65193 0.34807 0.65193 0.34807 0.65193 0.34807 0.65193 0.34807 0.65193 0.34807 0.65193 0.34807 0.65193 0.34807 0.65193 0.34807 0.65193 0.34807 0.65193 0.34807 0.65193 0.34807 0.65193 0.34807 0.65193 0.34807 0.65193 0.34807 0.65193 0.34807 0.65193 0.34807 0.65193 0.34807 0.65193 0.34807 0.65193 0.34807 0.65193 0.34807 0.65193 0.34807 0.65193 0.34807 0.65193 0.34807 0.65193</probabilities>
		</cpt>
		<cpt id="jWhile3">
			<state id="Correct" />
			<state id="Wrong" />
			<parents>KC70 KC97 KC2</parents>
			<probabilities>0.902678 0.09732200000000001 0.0031998 0.9968002 0.0031998 0.9968002 0.0031998 0.9968002 0.0031998 0.9968002 0.0031998 0.9968002 0.0031998 0.9968002 0.0031998 0.9968002</probabilities>
		</cpt>
		<cpt id="jBankAccount">
			<state id="Correct" />
			<state id="Wrong" />
			<parents>KC77 KC64 KC62 KC44 KC22</parents>
			<probabilities>0.7774099999999999 0.22259 0.40097 0.59903 0.40097 0.59903 0.40097 0.59903 0.40097 0.59903 0.40097 0.59903 0.40097 0.59903 0.40097 0.59903 0.40097 0.59903 0.40097 0.59903 0.40097 0.59903 0.40097 0.59903 0.40097 0.59903 0.40097 0.59903 0.40097 0.59903 0.40097 0.59903 0.40097 0.59903 0.40097 0.59903 0.40097 0.59903 0.40097 0.59903 0.40097 0.59903 0.40097 0.59903 0.40097 0.59903 0.40097 0.59903 0.40097 0.59903 0.40097 0.59903 0.40097 0.59903 0.40097 0.59903 0.40097 0.59903 0.40097 0.59903 0.40097 0.59903 0.40097 0.59903</probabilities>
		</cpt>
		<cpt id="jClassBankAccountThis">
			<state id="Correct" />
			<state id="Wrong" />
			<parents>KC77 KC64 KC62 KC44 KC22 KC96</parents>
			<probabilities>0.9117 0.0883 0.22803 0.77197 0.22803 0.77197 0.22803 0.77197 0.22803 0.77197 0.22803 0.77197 0.22803 0.77197 0.22803 0.77197 0.22803 0.77197 0.22803 0.77197 0.22803 0.77197 0.22803 0.77197 0.22803 0.77197 0.22803 0.77197 0.22803 0.77197 0.22803 0.77197 0.22803 0.77197 0.22803 0.77197 0.22803 0.77197 0.22803 0.77197 0.22803 0.77197 0.22803 0.77197 0.22803 0.77197 0.22803 0.77197 0.22803 0.77197 0.22803 0.77197 0.22803 0.77197 0.22803 0.77197 0.22803 0.77197 0.22803 0.77197 0.22803 0.77197 0.22803 0.77197 0.22803 0.77197 0.22803 0.77197 0.22803 0.77197 0.22803 0.77197 0.22803 0.77197 0.22803 0.77197 0.22803 0.77197 0.22803 0.77197 0.22803 0.77197 0.22803 0.77197 0.22803 0.77197 0.22803 0.77197 0.22803 0.77197 0.22803 0.77197 0.22803 0.77197 0.22803 0.77197 0.22803 0.77197 0.22803 0.77197 0.22803 0.77197 0.22803 0.77197 0.22803 0.77197 0.22803 0.77197 0.22803 0.77197 0.22803 0.77197 0.22803 0.77197 0.22803 0.77197 0.22803 0.77197 0.22803 0.77197 0.22803 0.77197 0.22803 0.77197 0.22803 0.77197 0.22803 0.77197</probabilities>
		</cpt>
		<cpt id="jArrayList2">
			<state id="Correct" />
			<state id="Wrong" />
			<parents>KC56 KC115 KC114 KC119 KC118 KC117 KC38</parents>
			<probabilities>0.9868980000000001 0.013102 0.39289 0.60711 0.39289 0.60711 0.39289 0.60711 0.39289 0.60711 0.39289 0.60711 0.39289 0.60711 0.39289 0.60711 0.39289 0.60711 0.39289 0.60711 0.39289 0.60711 0.39289 0.60711 0.39289 0.60711 0.39289 0.60711 0.39289 0.60711 0.39289 0.60711 0.39289 0.60711 0.39289 0.60711 0.39289 0.60711 0.39289 0.60711 0.39289 0.60711 0.39289 0.60711 0.39289 0.60711 0.39289 0.60711 0.39289 0.60711 0.39289 0.60711 0.39289 0.60711 0.39289 0.60711 0.39289 0.60711 0.39289 0.60711 0.39289 0.60711 0.39289 0.60711 0.39289 0.60711 0.39289 0.60711 0.39289 0.60711 0.39289 0.60711 0.39289 0.60711 0.39289 0.60711 0.39289 0.60711 0.39289 0.60711 0.39289 0.60711 0.39289 0.60711 0.39289 0.60711 0.39289 0.60711 0.39289 0.60711 0.39289 0.60711 0.39289 0.60711 0.39289 0.60711 0.39289 0.60711 0.39289 0.60711 0.39289 0.60711 0.39289 0.60711 0.39289 0.60711 0.39289 0.60711 0.39289 0.60711 0.39289 0.60711 0.39289 0.60711 0.39289 0.60711 0.39289 0.60711 0.39289 0.60711 0.39289 0.60711 0.39289 0.60711 0.39289 0.60711 0.39289 0.60711 0.39289 0.60711 0.39289 0.60711 0.39289 0.60711 0.39289 0.60711 0.39289 0.60711 0.39289 0.60711 0.39289 0.60711 0.39289 0.60711 0.39289 0.60711 0.39289 0.60711 0.39289 0.60711 0.39289 0.60711 0.39289 0.60711 0.39289 0.60711 0.39289 0.60711 0.39289 0.60711 0.39289 0.60711 0.39289 0.60711 0.39289 0.60711 0.39289 0.60711 0.39289 0.60711 0.39289 0.60711 0.39289 0.60711 0.39289 0.60711 0.39289 0.60711 0.39289 0.60711 0.39289 0.60711 0.39289 0.60711 0.39289 0.60711 0.39289 0.60711 0.39289 0.60711 0.39289 0.60711 0.39289 0.60711 0.39289 0.60711 0.39289 0.60711 0.39289 0.60711 0.39289 0.60711 0.39289 0.60711 0.39289 0.60711 0.39289 0.60711 0.39289 0.60711 0.39289 0.60711 0.39289 0.60711 0.39289 0.60711 0.39289 0.60711 0.39289 0.60711 0.39289 0.60711 0.39289 0.60711 0.39289 0.60711 0.39289 0.60711 0.39289 0.60711 0.39289 0.60711 0.39289 0.60711 0.39289 0.60711 0.39289 0.60711 0.39289 0.60711 0.39289 0.60711 0.39289 0.60711 0.39289 0.60711 0.39289 0.60711 0.39289 0.60711 0.39289 0.60711 0.39289 0.60711 0.39289 0.60711</probabilities>
		</cpt>
		<cpt id="jString_to_Double">
			<state id="Correct" />
			<state id="Wrong" />
			<parents>KC86 KC85 KC84 KC26 KC98</parents>
			<probabilities>0.82501 0.17499 0.40249 0.59751 0.40249 0.59751 0.40249 0.59751 0.40249 0.59751 0.40249 0.59751 0.40249 0.59751 0.40249 0.59751 0.40249 0.59751 0.40249 0.59751 0.40249 0.59751 0.40249 0.59751 0.40249 0.59751 0.40249 0.59751 0.40249 0.59751 0.40249 0.59751 0.40249 0.59751 0.40249 0.59751 0.40249 0.59751 0.40249 0.59751 0.40249 0.59751 0.40249 0.59751 0.40249 0.59751 0.40249 0.59751 0.40249 0.59751 0.40249 0.59751 0.40249 0.59751 0.40249 0.59751 0.40249 0.59751 0.40249 0.59751 0.40249 0.59751 0.40249 0.59751</probabilities>
		</cpt>
		<cpt id="jPostDecrement">
			<state id="Correct" />
			<state id="Wrong" />
			<parents>KC47 KC69</parents>
			<probabilities>0.6027400000000001 0.39726 0.9844000000000001 0.01559999999999995 0.9844000000000001 0.01559999999999995 0.9844000000000001 0.01559999999999995</probabilities>
		</cpt>
		<cpt id="jBoolean_Method">
			<state id="Correct" />
			<state id="Wrong" />
			<parents>KC70 KC40 KC69 KC107 KC27</parents>
			<probabilities>0.81528 0.18472 0.36056 0.63944 0.36056 0.63944 0.36056 0.63944 0.36056 0.63944 0.36056 0.63944 0.36056 0.63944 0.36056 0.63944 0.36056 0.63944 0.36056 0.63944 0.36056 0.63944 0.36056 0.63944 0.36056 0.63944 0.36056 0.63944 0.36056 0.63944 0.36056 0.63944 0.36056 0.63944 0.36056 0.63944 0.36056 0.63944 0.36056 0.63944 0.36056 0.63944 0.36056 0.63944 0.36056 0.63944 0.36056 0.63944 0.36056 0.63944 0.36056 0.63944 0.36056 0.63944 0.36056 0.63944 0.36056 0.63944 0.36056 0.63944 0.36056 0.63944 0.36056 0.63944</probabilities>
		</cpt>
		<cpt id="jDowhile2">
			<state id="Correct" />
			<state id="Wrong" />
			<parents>KC69 KC25</parents>
			<probabilities>0.68565 0.31435 0.2081 0.7919 0.2081 0.7919 0.2081 0.7919</probabilities>
		</cpt>
		<cpt id="jDowhile6">
			<state id="Correct" />
			<state id="Wrong" />
			<parents>KC70 KC2 KC25</parents>
			<probabilities>0.75951 0.24049 0.24957 0.75043 0.24957 0.75043 0.24957 0.75043 0.24957 0.75043 0.24957 0.75043 0.24957 0.75043 0.24957 0.75043</probabilities>
		</cpt>
		<cpt id="jObjects2">
			<state id="Correct" />
			<state id="Wrong" />
			<parents>KC64 KC62</parents>
			<probabilities>0.68596 0.31404 0.4828 0.5172 0.4828 0.5172 0.4828 0.5172</probabilities>
		</cpt>
		<cpt id="jCompareString">
			<state id="Correct" />
			<state id="Wrong" />
			<parents>KC12 KC107 KC111</parents>
			<probabilities>0.88574 0.11426 0.30626 0.69374 0.30626 0.69374 0.30626 0.69374 0.30626 0.69374 0.30626 0.69374 0.30626 0.69374 0.30626 0.69374</probabilities>
		</cpt>
		<cpt id="jInheritance6">
			<state id="Correct" />
			<state id="Wrong" />
			<parents>KC68 KC105 KC93 KC92 KC91 KC90 KC66 KC63 KC43 KC29</parents>
			<probabilities>0.99978237 0.00021763 0.54388 0.45612 0.54388 0.45612 0.54388 0.45612 0.54388 0.45612 0.54388 0.45612 0.54388 0.45612 0.54388 0.45612 0.54388 0.45612 0.54388 0.45612 0.54388 0.45612 0.54388 0.45612 0.54388 0.45612 0.54388 0.45612 0.54388 0.45612 0.54388 0.45612 0.54388 0.45612 0.54388 0.45612 0.54388 0.45612 0.54388 0.45612 0.54388 0.45612 0.54388 0.45612 0.54388 0.45612 0.54388 0.45612 0.54388 0.45612 0.54388 0.45612 0.54388 0.45612 0.54388 0.45612 0.54388 0.45612 0.54388 0.45612 0.54388 0.45612 0.54388 0.45612 0.54388 0.45612 0.54388 0.45612 0.54388 0.45612 0.54388 0.45612 0.54388 0.45612 0.54388 0.45612 0.54388 0.45612 0.54388 0.45612 0.54388 0.45612 0.54388 0.45612 0.54388 0.45612 0.54388 0.45612 0.54388 0.45612 0.54388 0.45612 0.54388 0.45612 0.54388 0.45612 0.54388 0.45612 0.54388 0.45612 0.54388 0.45612 0.54388 0.45612 0.54388 0.45612 0.54388 0.45612 0.54388 0.45612 0.54388 0.45612 0.54388 0.45612 0.54388 0.45612 0.54388 0.45612 0.54388 0.45612 0.54388 0.45612 0.54388 0.45612 0.54388 0.45612 0.54388 0.45612 0.54388 0.45612 0.54388 0.45612 0.54388 0.45612 0.54388 0.45612 0.54388 0.45612 0.54388 0.45612 0.54388 0.45612 0.54388 0.45612 0.54388 0.45612 0.54388 0.45612 0.54388 0.45612 0.54388 0.45612 0.54388 0.45612 0.54388 0.45612 0.54388 0.45612 0.54388 0.45612 0.54388 0.45612 0.54388 0.45612 0.54388 0.45612 0.54388 0.45612 0.54388 0.45612 0.54388 0.45612 0.54388 0.45612 0.54388 0.45612 0.54388 0.45612 0.54388 0.45612 0.54388 0.45612 0.54388 0.45612 0.54388 0.45612 0.54388 0.45612 0.54388 0.45612 0.54388 0.45612 0.54388 0.45612 0.54388 0.45612 0.54388 0.45612 0.54388 0.45612 0.54388 0.45612 0.54388 0.45612 0.54388 0.45612 0.54388 0.45612 0.54388 0.45612 0.54388 0.45612 0.54388 0.45612 0.54388 0.45612 0.54388 0.45612 0.54388 0.45612 0.54388 0.45612 0.54388 0.45612 0.54388 0.45612 0.54388 0.45612 0.54388 0.45612 0.54388 0.45612 0.54388 0.45612 0.54388 0.45612 0.54388 0.45612 0.54388 0.45612 0.54388 0.45612 0.54388 0.45612 0.54388 0.45612 0.54388 0.45612 0.54388 0.45612 0.54388 0.45612 0.54388 0.45612 0.54388 0.45612 0.54388 0.45612 0.54388 0.45612 0.54388 0.45612 0.54388 0.45612 0.54388 0.45612 0.54388 0.45612 0.54388 0.45612 0.54388 0.45612 0.54388 0.45612 0.54388 0.45612 0.54388 0.45612 0.54388 0.45612 0.54388 0.45612 0.54388 0.45612 0.54388 0.45612 0.54388 0.45612 0.54388 0.45612 0.54388 0.45612 0.54388 0.45612 0.54388 0.45612 0.54388 0.45612 0.54388 0.45612 0.54388 0.45612 0.54388 0.45612 0.54388 0.45612 0.54388 0.45612 0.54388 0.45612 0.54388 0.45612 0.54388 0.45612 0.54388 0.45612 0.54388 0.45612 0.54388 0.45612 0.54388 0.45612 0.54388 0.45612 0.54388 0.45612 0.54388 0.45612 0.54388 0.45612 0.54388 0.45612 0.54388 0.45612 0.54388 0.45612 0.54388 0.45612 0.54388 0.45612 0.54388 0.45612 0.54388 0.45612 0.54388 0.45612 0.54388 0.45612 0.54388 0.45612 0.54388 0.45612 0.54388 0.45612 0.54388 0.45612 0.54388 0.45612 0.54388 0.45612 0.54388 0.45612 0.54388 0.45612 0.54388 0.45612 0.54388 0.45612 0.54388 0.45612 0.54388 0.45612 0.54388 0.45612 0.54388 0.45612 0.54388 0.45612 0.54388 0.45612 0.54388 0.45612 0.54388 0.45612 0.54388 0.45612 0.54388 0.45612 0.54388 0.45612 0.54388 0.45612 0.54388 0.45612 0.54388 0.45612 0.54388 0.45612 0.54388 0.45612 0.54388 0.45612 0.54388 0.45612 0.54388 0.45612 0.54388 0.45612 0.54388 0.45612 0.54388 0.45612 0.54388 0.45612 0.54388 0.45612 0.54388 0.45612 0.54388 0.45612 0.54388 0.45612 0.54388 0.45612 0.54388 0.45612 0.54388 0.45612 0.54388 0.45612 0.54388 0.45612 0.54388 0.45612 0.54388 0.45612 0.54388 0.45612 0.54388 0.45612 0.54388 0.45612 0.54388 0.45612 0.54388 0.45612 0.54388 0.45612 0.54388 0.45612 0.54388 0.45612 0.54388 0.45612 0.54388 0.45612 0.54388 0.45612 0.54388 0.45612 0.54388 0.45612 0.54388 0.45612 0.54388 0.45612 0.54388 0.45612 0.54388 0.45612 0.54388 0.45612 0.54388 0.45612 0.54388 0.45612 0.54388 0.45612 0.54388 0.45612 0.54388 0.45612 0.54388 0.45612 0.54388 0.45612 0.54388 0.45612 0.54388 0.45612 0.54388 0.45612 0.54388 0.45612 0.54388 0.45612 0.54388 0.45612 0.54388 0.45612 0.54388 0.45612 0.54388 0.45612 0.54388 0.45612 0.54388 0.45612 0.54388 0.45612 0.54388 0.45612 0.54388 0.45612 0.54388 0.45612 0.54388 0.45612 0.54388 0.45612 0.54388 0.45612 0.54388 0.45612 0.54388 0.45612 0.54388 0.45612 0.54388 0.45612 0.54388 0.45612 0.54388 0.45612 0.54388 0.45612 0.54388 0.45612 0.54388 0.45612 0.54388 0.45612 0.54388 0.45612 0.54388 0.45612 0.54388 0.45612 0.54388 0.45612 0.54388 0.45612 0.54388 0.45612 0.54388 0.45612 0.54388 0.45612 0.54388 0.45612 0.54388 0.45612 0.54388 0.45612 0.54388 0.45612 0.54388 0.45612 0.54388 0.45612 0.54388 0.45612 0.54388 0.45612 0.54388 0.45612 0.54388 0.45612 0.54388 0.45612 0.54388 0.45612 0.54388 0.45612 0.54388 0.45612 0.54388 0.45612 0.54388 0.45612 0.54388 0.45612 0.54388 0.45612 0.54388 0.45612 0.54388 0.45612 0.54388 0.45612 0.54388 0.45612 0.54388 0.45612 0.54388 0.45612 0.54388 0.45612 0.54388 0.45612 0.54388 0.45612 0.54388 0.45612 0.54388 0.45612 0.54388 0.45612 0.54388 0.45612 0.54388 0.45612 0.54388 0.45612 0.54388 0.45612 0.54388 0.45612 0.54388 0.45612 0.54388 0.45612 0.54388 0.45612 0.54388 0.45612 0.54388 0.45612 0.54388 0.45612 0.54388 0.45612 0.54388 0.45612 0.54388 0.45612 0.54388 0.45612 0.54388 0.45612 0.54388 0.45612 0.54388 0.45612 0.54388 0.45612 0.54388 0.45612 0.54388 0.45612 0.54388 0.45612 0.54388 0.45612 0.54388 0.45612 0.54388 0.45612 0.54388 0.45612 0.54388 0.45612 0.54388 0.45612 0.54388 0.45612 0.54388 0.45612 0.54388 0.45612 0.54388 0.45612 0.54388 0.45612 0.54388 0.45612 0.54388 0.45612 0.54388 0.45612 0.54388 0.45612 0.54388 0.45612 0.54388 0.45612 0.54388 0.45612 0.54388 0.45612 0.54388 0.45612 0.54388 0.45612 0.54388 0.45612 0.54388 0.45612 0.54388 0.45612 0.54388 0.45612 0.54388 0.45612 0.54388 0.45612 0.54388 0.45612 0.54388 0.45612 0.54388 0.45612 0.54388 0.45612 0.54388 0.45612 0.54388 0.45612 0.54388 0.45612 0.54388 0.45612 0.54388 0.45612 0.54388 0.45612 0.54388 0.45612 0.54388 0.45612 0.54388 0.45612 0.54388 0.45612 0.54388 0.45612 0.54388 0.45612 0.54388 0.45612 0.54388 0.45612 0.54388 0.45612 0.54388 0.45612 0.54388 0.45612 0.54388 0.45612 0.54388 0.45612 0.54388 0.45612 0.54388 0.45612 0.54388 0.45612 0.54388 0.45612 0.54388 0.45612 0.54388 0.45612 0.54388 0.45612 0.54388 0.45612 0.54388 0.45612 0.54388 0.45612 0.54388 0.45612 0.54388 0.45612 0.54388 0.45612 0.54388 0.45612 0.54388 0.45612 0.54388 0.45612 0.54388 0.45612 0.54388 0.45612 0.54388 0.45612 0.54388 0.45612 0.54388 0.45612 0.54388 0.45612 0.54388 0.45612 0.54388 0.45612 0.54388 0.45612 0.54388 0.45612 0.54388 0.45612 0.54388 0.45612 0.54388 0.45612 0.54388 0.45612 0.54388 0.45612 0.54388 0.45612 0.54388 0.45612 0.54388 0.45612 0.54388 0.45612 0.54388 0.45612 0.54388 0.45612 0.54388 0.45612 0.54388 0.45612 0.54388 0.45612 0.54388 0.45612 0.54388 0.45612 0.54388 0.45612 0.54388 0.45612 0.54388 0.45612 0.54388 0.45612 0.54388 0.45612 0.54388 0.45612 0.54388 0.45612 0.54388 0.45612 0.54388 0.45612 0.54388 0.45612 0.54388 0.45612 0.54388 0.45612 0.54388 0.45612 0.54388 0.45612 0.54388 0.45612 0.54388 0.45612 0.54388 0.45612 0.54388 0.45612 0.54388 0.45612 0.54388 0.45612 0.54388 0.45612 0.54388 0.45612 0.54388 0.45612 0.54388 0.45612 0.54388 0.45612 0.54388 0.45612 0.54388 0.45612 0.54388 0.45612 0.54388 0.45612 0.54388 0.45612 0.54388 0.45612 0.54388 0.45612 0.54388 0.45612 0.54388 0.45612 0.54388 0.45612 0.54388 0.45612 0.54388 0.45612 0.54388 0.45612 0.54388 0.45612 0.54388 0.45612 0.54388 0.45612 0.54388 0.45612 0.54388 0.45612 0.54388 0.45612 0.54388 0.45612 0.54388 0.45612 0.54388 0.45612 0.54388 0.45612 0.54388 0.45612 0.54388 0.45612 0.54388 0.45612 0.54388 0.45612 0.54388 0.45612 0.54388 0.45612 0.54388 0.45612 0.54388 0.45612 0.54388 0.45612 0.54388 0.45612 0.54388 0.45612 0.54388 0.45612 0.54388 0.45612 0.54388 0.45612 0.54388 0.45612 0.54388 0.45612 0.54388 0.45612 0.54388 0.45612 0.54388 0.45612 0.54388 0.45612 0.54388 0.45612 0.54388 0.45612 0.54388 0.45612 0.54388 0.45612 0.54388 0.45612 0.54388 0.45612 0.54388 0.45612 0.54388 0.45612 0.54388 0.45612 0.54388 0.45612 0.54388 0.45612 0.54388 0.45612 0.54388 0.45612 0.54388 0.45612 0.54388 0.45612 0.54388 0.45612 0.54388 0.45612 0.54388 0.45612 0.54388 0.45612 0.54388 0.45612 0.54388 0.45612 0.54388 0.45612 0.54388 0.45612 0.54388 0.45612 0.54388 0.45612 0.54388 0.45612 0.54388 0.45612 0.54388 0.45612 0.54388 0.45612 0.54388 0.45612 0.54388 0.45612 0.54388 0.45612 0.54388 0.45612 0.54388 0.45612 0.54388 0.45612 0.54388 0.45612 0.54388 0.45612 0.54388 0.45612 0.54388 0.45612 0.54388 0.45612 0.54388 0.45612 0.54388 0.45612 0.54388 0.45612 0.54388 0.45612 0.54388 0.45612 0.54388 0.45612 0.54388 0.45612 0.54388 0.45612 0.54388 0.45612 0.54388 0.45612 0.54388 0.45612 0.54388 0.45612 0.54388 0.45612 0.54388 0.45612 0.54388 0.45612 0.54388 0.45612 0.54388 0.45612 0.54388 0.45612 0.54388 0.45612 0.54388 0.45612 0.54388 0.45612 0.54388 0.45612 0.54388 0.45612 0.54388 0.45612 0.54388 0.45612 0.54388 0.45612 0.54388 0.45612 0.54388 0.45612 0.54388 0.45612 0.54388 0.45612 0.54388 0.45612 0.54388 0.45612 0.54388 0.45612 0.54388 0.45612 0.54388 0.45612 0.54388 0.45612 0.54388 0.45612 0.54388 0.45612 0.54388 0.45612 0.54388 0.45612 0.54388 0.45612 0.54388 0.45612 0.54388 0.45612 0.54388 0.45612 0.54388 0.45612 0.54388 0.45612 0.54388 0.45612 0.54388 0.45612 0.54388 0.45612 0.54388 0.45612 0.54388 0.45612 0.54388 0.45612 0.54388 0.45612 0.54388 0.45612 0.54388 0.45612 0.54388 0.45612 0.54388 0.45612 0.54388 0.45612 0.54388 0.45612 0.54388 0.45612 0.54388 0.45612 0.54388 0.45612 0.54388 0.45612 0.54388 0.45612 0.54388 0.45612 0.54388 0.45612 0.54388 0.45612 0.54388 0.45612 0.54388 0.45612 0.54388 0.45612 0.54388 0.45612 0.54388 0.45612 0.54388 0.45612 0.54388 0.45612 0.54388 0.45612 0.54388 0.45612 0.54388 0.45612 0.54388 0.45612 0.54388 0.45612 0.54388 0.45612 0.54388 0.45612 0.54388 0.45612 0.54388 0.45612 0.54388 0.45612 0.54388 0.45612 0.54388 0.45612 0.54388 0.45612 0.54388 0.45612 0.54388 0.45612 0.54388 0.45612 0.54388 0.45612 0.54388 0.45612 0.54388 0.45612 0.54388 0.45612 0.54388 0.45612 0.54388 0.45612 0.54388 0.45612 0.54388 0.45612 0.54388 0.45612 0.54388 0.45612 0.54388 0.45612 0.54388 0.45612 0.54388 0.45612 0.54388 0.45612 0.54388 0.45612 0.54388 0.45612 0.54388 0.45612 0.54388 0.45612 0.54388 0.45612 0.54388 0.45612 0.54388 0.45612 0.54388 0.45612 0.54388 0.45612 0.54388 0.45612 0.54388 0.45612 0.54388 0.45612 0.54388 0.45612 0.54388 0.45612 0.54388 0.45612 0.54388 0.45612 0.54388 0.45612 0.54388 0.45612 0.54388 0.45612 0.54388 0.45612 0.54388 0.45612 0.54388 0.45612 0.54388 0.45612 0.54388 0.45612 0.54388 0.45612 0.54388 0.45612 0.54388 0.45612 0.54388 0.45612 0.54388 0.45612 0.54388 0.45612 0.54388 0.45612 0.54388 0.45612 0.54388 0.45612 0.54388 0.45612 0.54388 0.45612 0.54388 0.45612 0.54388 0.45612 0.54388 0.45612 0.54388 0.45612 0.54388 0.45612 0.54388 0.45612 0.54388 0.45612 0.54388 0.45612 0.54388 0.45612 0.54388 0.45612 0.54388 0.45612 0.54388 0.45612 0.54388 0.45612 0.54388 0.45612 0.54388 0.45612 0.54388 0.45612 0.54388 0.45612 0.54388 0.45612 0.54388 0.45612 0.54388 0.45612 0.54388 0.45612 0.54388 0.45612 0.54388 0.45612 0.54388 0.45612 0.54388 0.45612 0.54388 0.45612 0.54388 0.45612 0.54388 0.45612 0.54388 0.45612 0.54388 0.45612 0.54388 0.45612 0.54388 0.45612 0.54388 0.45612 0.54388 0.45612 0.54388 0.45612 0.54388 0.45612 0.54388 0.45612 0.54388 0.45612 0.54388 0.45612 0.54388 0.45612 0.54388 0.45612 0.54388 0.45612 0.54388 0.45612 0.54388 0.45612 0.54388 0.45612 0.54388 0.45612 0.54388 0.45612 0.54388 0.45612 0.54388 0.45612 0.54388 0.45612 0.54388 0.45612 0.54388 0.45612 0.54388 0.45612 0.54388 0.45612 0.54388 0.45612 0.54388 0.45612 0.54388 0.45612 0.54388 0.45612 0.54388 0.45612 0.54388 0.45612 0.54388 0.45612 0.54388 0.45612 0.54388 0.45612 0.54388 0.45612 0.54388 0.45612 0.54388 0.45612 0.54388 0.45612 0.54388 0.45612 0.54388 0.45612 0.54388 0.45612 0.54388 0.45612 0.54388 0.45612 0.54388 0.45612 0.54388 0.45612 0.54388 0.45612 0.54388 0.45612 0.54388 0.45612 0.54388 0.45612 0.54388 0.45612 0.54388 0.45612 0.54388 0.45612 0.54388 0.45612 0.54388 0.45612 0.54388 0.45612 0.54388 0.45612 0.54388 0.45612 0.54388 0.45612 0.54388 0.45612 0.54388 0.45612 0.54388 0.45612 0.54388 0.45612 0.54388 0.45612 0.54388 0.45612 0.54388 0.45612 0.54388 0.45612 0.54388 0.45612 0.54388 0.45612 0.54388 0.45612 0.54388 0.45612 0.54388 0.45612 0.54388 0.45612 0.54388 0.45612 0.54388 0.45612 0.54388 0.45612 0.54388 0.45612 0.54388 0.45612 0.54388 0.45612 0.54388 0.45612 0.54388 0.45612 0.54388 0.45612 0.54388 0.45612 0.54388 0.45612 0.54388 0.45612 0.54388 0.45612 0.54388 0.45612 0.54388 0.45612 0.54388 0.45612 0.54388 0.45612 0.54388 0.45612 0.54388 0.45612 0.54388 0.45612 0.54388 0.45612 0.54388 0.45612 0.54388 0.45612 0.54388 0.45612 0.54388 0.45612 0.54388 0.45612 0.54388 0.45612 0.54388 0.45612 0.54388 0.45612 0.54388 0.45612 0.54388 0.45612 0.54388 0.45612 0.54388 0.45612 0.54388 0.45612 0.54388 0.45612 0.54388 0.45612 0.54388 0.45612 0.54388 0.45612 0.54388 0.45612 0.54388 0.45612 0.54388 0.45612 0.54388 0.45612 0.54388 0.45612 0.54388 0.45612 0.54388 0.45612 0.54388 0.45612 0.54388 0.45612 0.54388 0.45612 0.54388 0.45612 0.54388 0.45612 0.54388 0.45612 0.54388 0.45612 0.54388 0.45612 0.54388 0.45612 0.54388 0.45612 0.54388 0.45612 0.54388 0.45612 0.54388 0.45612 0.54388 0.45612 0.54388 0.45612 0.54388 0.45612 0.54388 0.45612 0.54388 0.45612 0.54388 0.45612 0.54388 0.45612 0.54388 0.45612 0.54388 0.45612 0.54388 0.45612 0.54388 0.45612 0.54388 0.45612 0.54388 0.45612 0.54388 0.45612 0.54388 0.45612 0.54388 0.45612 0.54388 0.45612 0.54388 0.45612 0.54388 0.45612 0.54388 0.45612 0.54388 0.45612 0.54388 0.45612 0.54388 0.45612 0.54388 0.45612 0.54388 0.45612 0.54388 0.45612 0.54388 0.45612 0.54388 0.45612 0.54388 0.45612 0.54388 0.45612 0.54388 0.45612 0.54388 0.45612 0.54388 0.45612 0.54388 0.45612 0.54388 0.45612 0.54388 0.45612 0.54388 0.45612 0.54388 0.45612 0.54388 0.45612 0.54388 0.45612 0.54388 0.45612 0.54388 0.45612 0.54388 0.45612 0.54388 0.45612 0.54388 0.45612 0.54388 0.45612 0.54388 0.45612 0.54388 0.45612 0.54388 0.45612 0.54388 0.45612 0.54388 0.45612 0.54388 0.45612 0.54388 0.45612 0.54388 0.45612 0.54388 0.45612 0.54388 0.45612 0.54388 0.45612 0.54388 0.45612 0.54388 0.45612 0.54388 0.45612 0.54388 0.45612 0.54388 0.45612 0.54388 0.45612 0.54388 0.45612 0.54388 0.45612 0.54388 0.45612 0.54388 0.45612 0.54388 0.45612 0.54388 0.45612 0.54388 0.45612 0.54388 0.45612 0.54388 0.45612 0.54388 0.45612 0.54388 0.45612 0.54388 0.45612 0.54388 0.45612 0.54388 0.45612 0.54388 0.45612 0.54388 0.45612 0.54388 0.45612 0.54388 0.45612 0.54388 0.45612 0.54388 0.45612 0.54388 0.45612 0.54388 0.45612 0.54388 0.45612 0.54388 0.45612 0.54388 0.45612 0.54388 0.45612 0.54388 0.45612 0.54388 0.45612 0.54388 0.45612 0.54388 0.45612 0.54388 0.45612 0.54388 0.45612 0.54388 0.45612 0.54388 0.45612 0.54388 0.45612 0.54388 0.45612 0.54388 0.45612 0.54388 0.45612 0.54388 0.45612 0.54388 0.45612 0.54388 0.45612 0.54388 0.45612 0.54388 0.45612 0.54388 0.45612 0.54388 0.45612 0.54388 0.45612 0.54388 0.45612 0.54388 0.45612 0.54388 0.45612 0.54388 0.45612 0.54388 0.45612 0.54388 0.45612 0.54388 0.45612 0.54388 0.45612 0.54388 0.45612 0.54388 0.45612 0.54388 0.45612 0.54388 0.45612 0.54388 0.45612 0.54388 0.45612 0.54388 0.45612 0.54388 0.45612 0.54388 0.45612 0.54388 0.45612 0.54388 0.45612 0.54388 0.45612 0.54388 0.45612 0.54388 0.45612 0.54388 0.45612 0.54388 0.45612 0.54388 0.45612 0.54388 0.45612 0.54388 0.45612 0.54388 0.45612 0.54388 0.45612 0.54388 0.45612 0.54388 0.45612 0.54388 0.45612 0.54388 0.45612 0.54388 0.45612 0.54388 0.45612 0.54388 0.45612 0.54388 0.45612 0.54388 0.45612 0.54388 0.45612 0.54388 0.45612 0.54388 0.45612 0.54388 0.45612 0.54388 0.45612 0.54388 0.45612 0.54388 0.45612 0.54388 0.45612 0.54388 0.45612 0.54388 0.45612 0.54388 0.45612 0.54388 0.45612 0.54388 0.45612 0.54388 0.45612 0.54388 0.45612 0.54388 0.45612 0.54388 0.45612 0.54388 0.45612 0.54388 0.45612 0.54388 0.45612 0.54388 0.45612 0.54388 0.45612 0.54388 0.45612 0.54388 0.45612 0.54388 0.45612 0.54388 0.45612 0.54388 0.45612 0.54388 0.45612 0.54388 0.45612 0.54388 0.45612 0.54388 0.45612 0.54388 0.45612 0.54388 0.45612 0.54388 0.45612 0.54388 0.45612 0.54388 0.45612 0.54388 0.45612 0.54388 0.45612 0.54388 0.45612 0.54388 0.45612 0.54388 0.45612 0.54388 0.45612 0.54388 0.45612 0.54388 0.45612 0.54388 0.45612 0.54388 0.45612 0.54388 0.45612 0.54388 0.45612</probabilities>
		</cpt>
		<cpt id="jIfelse5">
			<state id="Correct" />
			<state id="Wrong" />
			<parents>KC70 KC40 KC69 KC59 KC37 KC56 KC38 KC39</parents>
			<probabilities>0.89033 0.10967 0.24135 0.75865 0.24135 0.75865 0.24135 0.75865 0.24135 0.75865 0.24135 0.75865 0.24135 0.75865 0.24135 0.75865 0.24135 0.75865 0.24135 0.75865 0.24135 0.75865 0.24135 0.75865 0.24135 0.75865 0.24135 0.75865 0.24135 0.75865 0.24135 0.75865 0.24135 0.75865 0.24135 0.75865 0.24135 0.75865 0.24135 0.75865 0.24135 0.75865 0.24135 0.75865 0.24135 0.75865 0.24135 0.75865 0.24135 0.75865 0.24135 0.75865 0.24135 0.75865 0.24135 0.75865 0.24135 0.75865 0.24135 0.75865 0.24135 0.75865 0.24135 0.75865 0.24135 0.75865 0.24135 0.75865 0.24135 0.75865 0.24135 0.75865 0.24135 0.75865 0.24135 0.75865 0.24135 0.75865 0.24135 0.75865 0.24135 0.75865 0.24135 0.75865 0.24135 0.75865 0.24135 0.75865 0.24135 0.75865 0.24135 0.75865 0.24135 0.75865 0.24135 0.75865 0.24135 0.75865 0.24135 0.75865 0.24135 0.75865 0.24135 0.75865 0.24135 0.75865 0.24135 0.75865 0.24135 0.75865 0.24135 0.75865 0.24135 0.75865 0.24135 0.75865 0.24135 0.75865 0.24135 0.75865 0.24135 0.75865 0.24135 0.75865 0.24135 0.75865 0.24135 0.75865 0.24135 0.75865 0.24135 0.75865 0.24135 0.75865 0.24135 0.75865 0.24135 0.75865 0.24135 0.75865 0.24135 0.75865 0.24135 0.75865 0.24135 0.75865 0.24135 0.75865 0.24135 0.75865 0.24135 0.75865 0.24135 0.75865 0.24135 0.75865 0.24135 0.75865 0.24135 0.75865 0.24135 0.75865 0.24135 0.75865 0.24135 0.75865 0.24135 0.75865 0.24135 0.75865 0.24135 0.75865 0.24135 0.75865 0.24135 0.75865 0.24135 0.75865 0.24135 0.75865 0.24135 0.75865 0.24135 0.75865 0.24135 0.75865 0.24135 0.75865 0.24135 0.75865 0.24135 0.75865 0.24135 0.75865 0.24135 0.75865 0.24135 0.75865 0.24135 0.75865 0.24135 0.75865 0.24135 0.75865 0.24135 0.75865 0.24135 0.75865 0.24135 0.75865 0.24135 0.75865 0.24135 0.75865 0.24135 0.75865 0.24135 0.75865 0.24135 0.75865 0.24135 0.75865 0.24135 0.75865 0.24135 0.75865 0.24135 0.75865 0.24135 0.75865 0.24135 0.75865 0.24135 0.75865 0.24135 0.75865 0.24135 0.75865 0.24135 0.75865 0.24135 0.75865 0.24135 0.75865 0.24135 0.75865 0.24135 0.75865 0.24135 0.75865 0.24135 0.75865 0.24135 0.75865 0.24135 0.75865 0.24135 0.75865 0.24135 0.75865 0.24135 0.75865 0.24135 0.75865 0.24135 0.75865 0.24135 0.75865 0.24135 0.75865 0.24135 0.75865 0.24135 0.75865 0.24135 0.75865 0.24135 0.75865 0.24135 0.75865 0.24135 0.75865 0.24135 0.75865 0.24135 0.75865 0.24135 0.75865 0.24135 0.75865 0.24135 0.75865 0.24135 0.75865 0.24135 0.75865 0.24135 0.75865 0.24135 0.75865 0.24135 0.75865 0.24135 0.75865 0.24135 0.75865 0.24135 0.75865 0.24135 0.75865 0.24135 0.75865 0.24135 0.75865 0.24135 0.75865 0.24135 0.75865 0.24135 0.75865 0.24135 0.75865 0.24135 0.75865 0.24135 0.75865 0.24135 0.75865 0.24135 0.75865 0.24135 0.75865 0.24135 0.75865 0.24135 0.75865 0.24135 0.75865 0.24135 0.75865 0.24135 0.75865 0.24135 0.75865 0.24135 0.75865 0.24135 0.75865 0.24135 0.75865 0.24135 0.75865 0.24135 0.75865 0.24135 0.75865 0.24135 0.75865 0.24135 0.75865 0.24135 0.75865 0.24135 0.75865 0.24135 0.75865 0.24135 0.75865 0.24135 0.75865 0.24135 0.75865 0.24135 0.75865 0.24135 0.75865 0.24135 0.75865 0.24135 0.75865 0.24135 0.75865 0.24135 0.75865 0.24135 0.75865 0.24135 0.75865 0.24135 0.75865 0.24135 0.75865 0.24135 0.75865 0.24135 0.75865 0.24135 0.75865 0.24135 0.75865 0.24135 0.75865 0.24135 0.75865 0.24135 0.75865 0.24135 0.75865 0.24135 0.75865 0.24135 0.75865 0.24135 0.75865 0.24135 0.75865 0.24135 0.75865 0.24135 0.75865 0.24135 0.75865 0.24135 0.75865 0.24135 0.75865 0.24135 0.75865 0.24135 0.75865 0.24135 0.75865 0.24135 0.75865 0.24135 0.75865 0.24135 0.75865 0.24135 0.75865 0.24135 0.75865 0.24135 0.75865 0.24135 0.75865 0.24135 0.75865 0.24135 0.75865 0.24135 0.75865 0.24135 0.75865 0.24135 0.75865 0.24135 0.75865 0.24135 0.75865 0.24135 0.75865 0.24135 0.75865 0.24135 0.75865 0.24135 0.75865 0.24135 0.75865 0.24135 0.75865 0.24135 0.75865 0.24135 0.75865 0.24135 0.75865 0.24135 0.75865 0.24135 0.75865 0.24135 0.75865 0.24135 0.75865 0.24135 0.75865 0.24135 0.75865 0.24135 0.75865 0.24135 0.75865 0.24135 0.75865 0.24135 0.75865 0.24135 0.75865 0.24135 0.75865 0.24135 0.75865 0.24135 0.75865 0.24135 0.75865 0.24135 0.75865 0.24135 0.75865</probabilities>
		</cpt>
		<cpt id="jusingFloat">
			<state id="Correct" />
			<state id="Wrong" />
			<parents>KC78 KC3 KC32</parents>
			<probabilities>0.68082 0.31918 0.14775 0.85225 0.14775 0.85225 0.14775 0.85225 0.14775 0.85225 0.14775 0.85225 0.14775 0.85225 0.14775 0.85225</probabilities>
		</cpt>
		<cpt id="jMathAbs">
			<state id="Correct" />
			<state id="Wrong" />
			<parents>KC26 KC100 KC89</parents>
			<probabilities>0.79633 0.20367 0.09038599999999999 0.909614 0.09038599999999999 0.909614 0.09038599999999999 0.909614 0.09038599999999999 0.909614 0.09038599999999999 0.909614 0.09038599999999999 0.909614 0.09038599999999999 0.909614</probabilities>
		</cpt>
		<cpt id="jEarthquake">
			<state id="Correct" />
			<state id="Wrong" />
			<parents>KC51 KC40 KC52 KC38 KC39</parents>
			<probabilities>0.66926 0.33074 0.26425 0.73575 0.26425 0.73575 0.26425 0.73575 0.26425 0.73575 0.26425 0.73575 0.26425 0.73575 0.26425 0.73575 0.26425 0.73575 0.26425 0.73575 0.26425 0.73575 0.26425 0.73575 0.26425 0.73575 0.26425 0.73575 0.26425 0.73575 0.26425 0.73575 0.26425 0.73575 0.26425 0.73575 0.26425 0.73575 0.26425 0.73575 0.26425 0.73575 0.26425 0.73575 0.26425 0.73575 0.26425 0.73575 0.26425 0.73575 0.26425 0.73575 0.26425 0.73575 0.26425 0.73575 0.26425 0.73575 0.26425 0.73575 0.26425 0.73575 0.26425 0.73575</probabilities>
		</cpt>
		<cpt id="jFor1">
			<state id="Correct" />
			<state id="Wrong" />
			<parents>KC70 KC34 KC2</parents>
			<probabilities>0.68553 0.31447 0.23659 0.76341 0.23659 0.76341 0.23659 0.76341 0.23659 0.76341 0.23659 0.76341 0.23659 0.76341 0.23659 0.76341</probabilities>
		</cpt>
		<cpt id="jArray2">
			<state id="Correct" />
			<state id="Wrong" />
			<parents>KC40 KC34 KC10 KC7 KC6 KC9</parents>
			<probabilities>0.82538 0.17462 0.36492 0.63508 0.36492 0.63508 0.36492 0.63508 0.36492 0.63508 0.36492 0.63508 0.36492 0.63508 0.36492 0.63508 0.36492 0.63508 0.36492 0.63508 0.36492 0.63508 0.36492 0.63508 0.36492 0.63508 0.36492 0.63508 0.36492 0.63508 0.36492 0.63508 0.36492 0.63508 0.36492 0.63508 0.36492 0.63508 0.36492 0.63508 0.36492 0.63508 0.36492 0.63508 0.36492 0.63508 0.36492 0.63508 0.36492 0.63508 0.36492 0.63508 0.36492 0.63508 0.36492 0.63508 0.36492 0.63508 0.36492 0.63508 0.36492 0.63508 0.36492 0.63508 0.36492 0.63508 0.36492 0.63508 0.36492 0.63508 0.36492 0.63508 0.36492 0.63508 0.36492 0.63508 0.36492 0.63508 0.36492 0.63508 0.36492 0.63508 0.36492 0.63508 0.36492 0.63508 0.36492 0.63508 0.36492 0.63508 0.36492 0.63508 0.36492 0.63508 0.36492 0.63508 0.36492 0.63508 0.36492 0.63508 0.36492 0.63508 0.36492 0.63508 0.36492 0.63508 0.36492 0.63508 0.36492 0.63508 0.36492 0.63508 0.36492 0.63508 0.36492 0.63508 0.36492 0.63508 0.36492 0.63508 0.36492 0.63508 0.36492 0.63508 0.36492 0.63508 0.36492 0.63508</probabilities>
		</cpt>
		<cpt id="jUsingDouble">
			<state id="Correct" />
			<state id="Wrong" />
			<parents>KC78 KC47 KC3 KC26</parents>
			<probabilities>0.56667 0.43333 0.33121 0.66879 0.33121 0.66879 0.33121 0.66879 0.33121 0.66879 0.33121 0.66879 0.33121 0.66879 0.33121 0.66879 0.33121 0.66879 0.33121 0.66879 0.33121 0.66879 0.33121 0.66879 0.33121 0.66879 0.33121 0.66879 0.33121 0.66879 0.33121 0.66879</probabilities>
		</cpt>
		<cpt id="jClassCashRegister">
			<state id="Correct" />
			<state id="Wrong" />
			<parents>KC77 KC64 KC62 KC44 KC22 KC17</parents>
			<probabilities>0.63419 0.36581 0.50501 0.49499 0.50501 0.49499 0.50501 0.49499 0.50501 0.49499 0.50501 0.49499 0.50501 0.49499 0.50501 0.49499 0.50501 0.49499 0.50501 0.49499 0.50501 0.49499 0.50501 0.49499 0.50501 0.49499 0.50501 0.49499 0.50501 0.49499 0.50501 0.49499 0.50501 0.49499 0.50501 0.49499 0.50501 0.49499 0.50501 0.49499 0.50501 0.49499 0.50501 0.49499 0.50501 0.49499 0.50501 0.49499 0.50501 0.49499 0.50501 0.49499 0.50501 0.49499 0.50501 0.49499 0.50501 0.49499 0.50501 0.49499 0.50501 0.49499 0.50501 0.49499 0.50501 0.49499 0.50501 0.49499 0.50501 0.49499 0.50501 0.49499 0.50501 0.49499 0.50501 0.49499 0.50501 0.49499 0.50501 0.49499 0.50501 0.49499 0.50501 0.49499 0.50501 0.49499 0.50501 0.49499 0.50501 0.49499 0.50501 0.49499 0.50501 0.49499 0.50501 0.49499 0.50501 0.49499 0.50501 0.49499 0.50501 0.49499 0.50501 0.49499 0.50501 0.49499 0.50501 0.49499 0.50501 0.49499 0.50501 0.49499 0.50501 0.49499 0.50501 0.49499 0.50501 0.49499 0.50501 0.49499 0.50501 0.49499 0.50501 0.49499 0.50501 0.49499 0.50501 0.49499</probabilities>
		</cpt>
		<cpt id="jMathFuc1">
			<state id="Correct" />
			<state id="Wrong" />
			<parents>KC3 KC26 KC104</parents>
			<probabilities>0.7133 0.2867 0.10761 0.89239 0.10761 0.89239 0.10761 0.89239 0.10761 0.89239 0.10761 0.89239 0.10761 0.89239 0.10761 0.89239</probabilities>
		</cpt>
		<cpt id="jString6">
			<state id="Correct" />
			<state id="Wrong" />
			<parents>KC86 KC84 KC111 KC87</parents>
			<probabilities>0.82012 0.17988 0.18047 0.81953 0.18047 0.81953 0.18047 0.81953 0.18047 0.81953 0.18047 0.81953 0.18047 0.81953 0.18047 0.81953 0.18047 0.81953 0.18047 0.81953 0.18047 0.81953 0.18047 0.81953 0.18047 0.81953 0.18047 0.81953 0.18047 0.81953 0.18047 0.81953</probabilities>
		</cpt>
		<cpt id="jtestNull">
			<state id="Correct" />
			<state id="Wrong" />
			<parents>KC40 KC52 KC12 KC27 KC120</parents>
			<probabilities>0.967495 0.032505 0.09081400000000001 0.909186 0.09081400000000001 0.909186 0.09081400000000001 0.909186 0.09081400000000001 0.909186 0.09081400000000001 0.909186 0.09081400000000001 0.909186 0.09081400000000001 0.909186 0.09081400000000001 0.909186 0.09081400000000001 0.909186 0.09081400000000001 0.909186 0.09081400000000001 0.909186 0.09081400000000001 0.909186 0.09081400000000001 0.909186 0.09081400000000001 0.909186 0.09081400000000001 0.909186 0.09081400000000001 0.909186 0.09081400000000001 0.909186 0.09081400000000001 0.909186 0.09081400000000001 0.909186 0.09081400000000001 0.909186 0.09081400000000001 0.909186 0.09081400000000001 0.909186 0.09081400000000001 0.909186 0.09081400000000001 0.909186 0.09081400000000001 0.909186 0.09081400000000001 0.909186 0.09081400000000001 0.909186 0.09081400000000001 0.909186 0.09081400000000001 0.909186 0.09081400000000001 0.909186 0.09081400000000001 0.909186</probabilities>
		</cpt>
		<cpt id="jArray1">
			<state id="Correct" />
			<state id="Wrong" />
			<parents>KC70 KC97 KC2 KC7 KC6 KC9</parents>
			<probabilities>0.70477 0.29523 0.35975 0.64025 0.35975 0.64025 0.35975 0.64025 0.35975 0.64025 0.35975 0.64025 0.35975 0.64025 0.35975 0.64025 0.35975 0.64025 0.35975 0.64025 0.35975 0.64025 0.35975 0.64025 0.35975 0.64025 0.35975 0.64025 0.35975 0.64025 0.35975 0.64025 0.35975 0.64025 0.35975 0.64025 0.35975 0.64025 0.35975 0.64025 0.35975 0.64025 0.35975 0.64025 0.35975 0.64025 0.35975 0.64025 0.35975 0.64025 0.35975 0.64025 0.35975 0.64025 0.35975 0.64025 0.35975 0.64025 0.35975 0.64025 0.35975 0.64025 0.35975 0.64025 0.35975 0.64025 0.35975 0.64025 0.35975 0.64025 0.35975 0.64025 0.35975 0.64025 0.35975 0.64025 0.35975 0.64025 0.35975 0.64025 0.35975 0.64025 0.35975 0.64025 0.35975 0.64025 0.35975 0.64025 0.35975 0.64025 0.35975 0.64025 0.35975 0.64025 0.35975 0.64025 0.35975 0.64025 0.35975 0.64025 0.35975 0.64025 0.35975 0.64025 0.35975 0.64025 0.35975 0.64025 0.35975 0.64025 0.35975 0.64025 0.35975 0.64025 0.35975 0.64025 0.35975 0.64025 0.35975 0.64025 0.35975 0.64025 0.35975 0.64025 0.35975 0.64025 0.35975 0.64025</probabilities>
		</cpt>
		<cpt id="j2D_Arrays2">
			<state id="Correct" />
			<state id="Wrong" />
			<parents>KC59 KC34 KC10 KC7 KC6 KC5 KC57</parents>
			<probabilities>0.59903 0.40097 0.49345 0.5065500000000001 0.49345 0.5065500000000001 0.49345 0.5065500000000001 0.49345 0.5065500000000001 0.49345 0.5065500000000001 0.49345 0.5065500000000001 0.49345 0.5065500000000001 0.49345 0.5065500000000001 0.49345 0.5065500000000001 0.49345 0.5065500000000001 0.49345 0.5065500000000001 0.49345 0.5065500000000001 0.49345 0.5065500000000001 0.49345 0.5065500000000001 0.49345 0.5065500000000001 0.49345 0.5065500000000001 0.49345 0.5065500000000001 0.49345 0.5065500000000001 0.49345 0.5065500000000001 0.49345 0.5065500000000001 0.49345 0.5065500000000001 0.49345 0.5065500000000001 0.49345 0.5065500000000001 0.49345 0.5065500000000001 0.49345 0.5065500000000001 0.49345 0.5065500000000001 0.49345 0.5065500000000001 0.49345 0.5065500000000001 0.49345 0.5065500000000001 0.49345 0.5065500000000001 0.49345 0.5065500000000001 0.49345 0.5065500000000001 0.49345 0.5065500000000001 0.49345 0.5065500000000001 0.49345 0.5065500000000001 0.49345 0.5065500000000001 0.49345 0.5065500000000001 0.49345 0.5065500000000001 0.49345 0.5065500000000001 0.49345 0.5065500000000001 0.49345 0.5065500000000001 0.49345 0.5065500000000001 0.49345 0.5065500000000001 0.49345 0.5065500000000001 0.49345 0.5065500000000001 0.49345 0.5065500000000001 0.49345 0.5065500000000001 0.49345 0.5065500000000001 0.49345 0.5065500000000001 0.49345 0.5065500000000001 0.49345 0.5065500000000001 0.49345 0.5065500000000001 0.49345 0.5065500000000001 0.49345 0.5065500000000001 0.49345 0.5065500000000001 0.49345 0.5065500000000001 0.49345 0.5065500000000001 0.49345 0.5065500000000001 0.49345 0.5065500000000001 0.49345 0.5065500000000001 0.49345 0.5065500000000001 0.49345 0.5065500000000001 0.49345 0.5065500000000001 0.49345 0.5065500000000001 0.49345 0.5065500000000001 0.49345 0.5065500000000001 0.49345 0.5065500000000001 0.49345 0.5065500000000001 0.49345 0.5065500000000001 0.49345 0.5065500000000001 0.49345 0.5065500000000001 0.49345 0.5065500000000001 0.49345 0.5065500000000001 0.49345 0.5065500000000001 0.49345 0.5065500000000001 0.49345 0.5065500000000001 0.49345 0.5065500000000001 0.49345 0.5065500000000001 0.49345 0.5065500000000001 0.49345 0.5065500000000001 0.49345 0.5065500000000001 0.49345 0.5065500000000001 0.49345 0.5065500000000001 0.49345 0.5065500000000001 0.49345 0.5065500000000001 0.49345 0.5065500000000001 0.49345 0.5065500000000001 0.49345 0.5065500000000001 0.49345 0.5065500000000001 0.49345 0.5065500000000001 0.49345 0.5065500000000001 0.49345 0.5065500000000001 0.49345 0.5065500000000001 0.49345 0.5065500000000001 0.49345 0.5065500000000001 0.49345 0.5065500000000001 0.49345 0.5065500000000001 0.49345 0.5065500000000001 0.49345 0.5065500000000001 0.49345 0.5065500000000001 0.49345 0.5065500000000001 0.49345 0.5065500000000001 0.49345 0.5065500000000001 0.49345 0.5065500000000001 0.49345 0.5065500000000001 0.49345 0.5065500000000001 0.49345 0.5065500000000001 0.49345 0.5065500000000001 0.49345 0.5065500000000001 0.49345 0.5065500000000001 0.49345 0.5065500000000001 0.49345 0.5065500000000001 0.49345 0.5065500000000001 0.49345 0.5065500000000001 0.49345 0.5065500000000001 0.49345 0.5065500000000001 0.49345 0.5065500000000001 0.49345 0.5065500000000001 0.49345 0.5065500000000001 0.49345 0.5065500000000001 0.49345 0.5065500000000001 0.49345 0.5065500000000001 0.49345 0.5065500000000001 0.49345 0.5065500000000001 0.49345 0.5065500000000001 0.49345 0.5065500000000001 0.49345 0.5065500000000001</probabilities>
		</cpt>
		<cpt id="j2D_Arrays1">
			<state id="Correct" />
			<state id="Wrong" />
			<parents>KC7 KC6 KC57 KC9</parents>
			<probabilities>0.6426000000000001 0.3574 0.31845 0.68155 0.31845 0.68155 0.31845 0.68155 0.31845 0.68155 0.31845 0.68155 0.31845 0.68155 0.31845 0.68155 0.31845 0.68155 0.31845 0.68155 0.31845 0.68155 0.31845 0.68155 0.31845 0.68155 0.31845 0.68155 0.31845 0.68155 0.31845 0.68155</probabilities>
		</cpt>
		<cpt id="jInterfaces2">
			<state id="Correct" />
			<state id="Wrong" />
			<parents>KC64 KC2 KC68 KC53 KC50 KC48 KC41 KC1</parents>
			<probabilities>0.72424 0.27576 0.2046 0.7954 0.2046 0.7954 0.2046 0.7954 0.2046 0.7954 0.2046 0.7954 0.2046 0.7954 0.2046 0.7954 0.2046 0.7954 0.2046 0.7954 0.2046 0.7954 0.2046 0.7954 0.2046 0.7954 0.2046 0.7954 0.2046 0.7954 0.2046 0.7954 0.2046 0.7954 0.2046 0.7954 0.2046 0.7954 0.2046 0.7954 0.2046 0.7954 0.2046 0.7954 0.2046 0.7954 0.2046 0.7954 0.2046 0.7954 0.2046 0.7954 0.2046 0.7954 0.2046 0.7954 0.2046 0.7954 0.2046 0.7954 0.2046 0.7954 0.2046 0.7954 0.2046 0.7954 0.2046 0.7954 0.2046 0.7954 0.2046 0.7954 0.2046 0.7954 0.2046 0.7954 0.2046 0.7954 0.2046 0.7954 0.2046 0.7954 0.2046 0.7954 0.2046 0.7954 0.2046 0.7954 0.2046 0.7954 0.2046 0.7954 0.2046 0.7954 0.2046 0.7954 0.2046 0.7954 0.2046 0.7954 0.2046 0.7954 0.2046 0.7954 0.2046 0.7954 0.2046 0.7954 0.2046 0.7954 0.2046 0.7954 0.2046 0.7954 0.2046 0.7954 0.2046 0.7954 0.2046 0.7954 0.2046 0.7954 0.2046 0.7954 0.2046 0.7954 0.2046 0.7954 0.2046 0.7954 0.2046 0.7954 0.2046 0.7954 0.2046 0.7954 0.2046 0.7954 0.2046 0.7954 0.2046 0.7954 0.2046 0.7954 0.2046 0.7954 0.2046 0.7954 0.2046 0.7954 0.2046 0.7954 0.2046 0.7954 0.2046 0.7954 0.2046 0.7954 0.2046 0.7954 0.2046 0.7954 0.2046 0.7954 0.2046 0.7954 0.2046 0.7954 0.2046 0.7954 0.2046 0.7954 0.2046 0.7954 0.2046 0.7954 0.2046 0.7954 0.2046 0.7954 0.2046 0.7954 0.2046 0.7954 0.2046 0.7954 0.2046 0.7954 0.2046 0.7954 0.2046 0.7954 0.2046 0.7954 0.2046 0.7954 0.2046 0.7954 0.2046 0.7954 0.2046 0.7954 0.2046 0.7954 0.2046 0.7954 0.2046 0.7954 0.2046 0.7954 0.2046 0.7954 0.2046 0.7954 0.2046 0.7954 0.2046 0.7954 0.2046 0.7954 0.2046 0.7954 0.2046 0.7954 0.2046 0.7954 0.2046 0.7954 0.2046 0.7954 0.2046 0.7954 0.2046 0.7954 0.2046 0.7954 0.2046 0.7954 0.2046 0.7954 0.2046 0.7954 0.2046 0.7954 0.2046 0.7954 0.2046 0.7954 0.2046 0.7954 0.2046 0.7954 0.2046 0.7954 0.2046 0.7954 0.2046 0.7954 0.2046 0.7954 0.2046 0.7954 0.2046 0.7954 0.2046 0.7954 0.2046 0.7954 0.2046 0.7954 0.2046 0.7954 0.2046 0.7954 0.2046 0.7954 0.2046 0.7954 0.2046 0.7954 0.2046 0.7954 0.2046 0.7954 0.2046 0.7954 0.2046 0.7954 0.2046 0.7954 0.2046 0.7954 0.2046 0.7954 0.2046 0.7954 0.2046 0.7954 0.2046 0.7954 0.2046 0.7954 0.2046 0.7954 0.2046 0.7954 0.2046 0.7954 0.2046 0.7954 0.2046 0.7954 0.2046 0.7954 0.2046 0.7954 0.2046 0.7954 0.2046 0.7954 0.2046 0.7954 0.2046 0.7954 0.2046 0.7954 0.2046 0.7954 0.2046 0.7954 0.2046 0.7954 0.2046 0.7954 0.2046 0.7954 0.2046 0.7954 0.2046 0.7954 0.2046 0.7954 0.2046 0.7954 0.2046 0.7954 0.2046 0.7954 0.2046 0.7954 0.2046 0.7954 0.2046 0.7954 0.2046 0.7954 0.2046 0.7954 0.2046 0.7954 0.2046 0.7954 0.2046 0.7954 0.2046 0.7954 0.2046 0.7954 0.2046 0.7954 0.2046 0.7954 0.2046 0.7954 0.2046 0.7954 0.2046 0.7954 0.2046 0.7954 0.2046 0.7954 0.2046 0.7954 0.2046 0.7954 0.2046 0.7954 0.2046 0.7954 0.2046 0.7954 0.2046 0.7954 0.2046 0.7954 0.2046 0.7954 0.2046 0.7954 0.2046 0.7954 0.2046 0.7954 0.2046 0.7954 0.2046 0.7954 0.2046 0.7954 0.2046 0.7954 0.2046 0.7954 0.2046 0.7954 0.2046 0.7954 0.2046 0.7954 0.2046 0.7954 0.2046 0.7954 0.2046 0.7954 0.2046 0.7954 0.2046 0.7954 0.2046 0.7954 0.2046 0.7954 0.2046 0.7954 0.2046 0.7954 0.2046 0.7954 0.2046 0.7954 0.2046 0.7954 0.2046 0.7954 0.2046 0.7954 0.2046 0.7954 0.2046 0.7954 0.2046 0.7954 0.2046 0.7954 0.2046 0.7954 0.2046 0.7954 0.2046 0.7954 0.2046 0.7954 0.2046 0.7954 0.2046 0.7954 0.2046 0.7954 0.2046 0.7954 0.2046 0.7954 0.2046 0.7954 0.2046 0.7954 0.2046 0.7954 0.2046 0.7954 0.2046 0.7954 0.2046 0.7954 0.2046 0.7954 0.2046 0.7954 0.2046 0.7954 0.2046 0.7954 0.2046 0.7954 0.2046 0.7954 0.2046 0.7954 0.2046 0.7954 0.2046 0.7954 0.2046 0.7954 0.2046 0.7954 0.2046 0.7954 0.2046 0.7954</probabilities>
		</cpt>
		<cpt id="jObjects3">
			<state id="Correct" />
			<state id="Wrong" />
			<parents>KC64 KC62</parents>
			<probabilities>0.7182500000000001 0.28175 0.042326 0.957674 0.042326 0.957674 0.042326 0.957674</probabilities>
		</cpt>
		<cpt id="jEnhancedForLoop">
			<state id="Correct" />
			<state id="Wrong" />
			<parents>KC40 KC33 KC7 KC6 KC9</parents>
			<probabilities>0.6544099999999999 0.34559 0.16668 0.8333200000000001 0.16668 0.8333200000000001 0.16668 0.8333200000000001 0.16668 0.8333200000000001 0.16668 0.8333200000000001 0.16668 0.8333200000000001 0.16668 0.8333200000000001 0.16668 0.8333200000000001 0.16668 0.8333200000000001 0.16668 0.8333200000000001 0.16668 0.8333200000000001 0.16668 0.8333200000000001 0.16668 0.8333200000000001 0.16668 0.8333200000000001 0.16668 0.8333200000000001 0.16668 0.8333200000000001 0.16668 0.8333200000000001 0.16668 0.8333200000000001 0.16668 0.8333200000000001 0.16668 0.8333200000000001 0.16668 0.8333200000000001 0.16668 0.8333200000000001 0.16668 0.8333200000000001 0.16668 0.8333200000000001 0.16668 0.8333200000000001 0.16668 0.8333200000000001 0.16668 0.8333200000000001 0.16668 0.8333200000000001 0.16668 0.8333200000000001 0.16668 0.8333200000000001 0.16668 0.8333200000000001</probabilities>
		</cpt>
		<cpt id="jInterfaces3">
			<state id="Correct" />
			<state id="Wrong" />
			<parents>KC64 KC2 KC68 KC53 KC50 KC48 KC41 KC1</parents>
